#ifndef W1_H
#define W1_H

#include <stdint.h>

const int32_t W1[128][46] = {
  { -403868, 81262, 41165, -171182, -318563, -166187, 130475, 251587, -243724, 267470, -94537, -82611, -8616, -419424, -87445, 91938, -85758, 26661, -58847, -57868, 242505, 147588, 90027, -309892, -95053, -74459, 154194, 173144, -201423, 103999, -256056, 32409, 242719, -204484, -153322, -77017, -86094, -103638, -212459, 477485, 402011, -87129, 237189, 12251, -476839, -535410 },
  { -129841, 238374, -175544, 40832, -45358, -301981, -206682, -95607, -91730, -199128, 16963, -49880, 94537, 60863, -62493, 250113, -29257, -176808, -55527, 5287, -105065, -110742, 329687, 57797, -123505, 152485, -22920, -523738, 88588, 56907, -41928, 110945, 33804, -189220, -45670, 42360, 342388, -76256, 32169, 554679, 221357, 111407, -121193, -244992, 550184, 148293 },
  { 140096, 138698, 177681, -341826, 128700, -49123, -125174, -15468, -199057, 245855, -137889, -167186, 54873, -57307, -196450, 13342, -65007, 56891, -61809, -439237, -1714, -6449, -107377, -74362, -161911, -226879, 183644, 214784, 109384, -89711, -79594, -76667, -163542, 157825, 35430, -44103, 250688, 120545, -80596, 357023, -195967, 157324, -80263, -176740, -292128, 4381 },
  { 186917, 89332, -97157, -135966, 88092, 96070, 247311, -121307, -310159, -80783, 352502, 160051, -187021, -76426, 33527, -126142, 202676, -7380, 234994, -59493, 219267, 499693, -246589, -147407, 66837, 241915, -165197, -294094, 216923, -93795, 1852, -360654, 97504, -379726, -66550, -332864, 268796, -23344, -259605, -109689, -103992, 338579, -246458, 19342, 170166, -137307 },
  { -148560, 46718, -175288, -170648, 62536, -79012, 89223, 7354, 172956, 265768, 259710, 513820, 269256, 292285, 29673, 428990, 80599, 203823, 25807, 207051, -218445, 86523, 154046, 71652, -30005, -160771, -43884, -156472, -9435, 239885, -196102, -15485, -442876, 212818, 243225, -93175, -92569, 171696, 258147, -91861, -267598, -11543, -45148, -332902, -234491, 174767 },
  { -349507, 134877, -253994, -141207, -64833, -234440, -325910, 209905, 175401, 81296, 12045, -207822, 104842, -222951, -96445, 7217, 63551, 52065, 346713, -284928, -1306, -124263, -335876, 41078, -202629, 163354, -111636, -51701, -66925, 389956, -145656, -226511, -494443, 56117, 31246, -126290, 181686, 96053, -213819, -81120, 151632, 312546, -70958, -175378, 249053, 72707 },
  { 133506, 37397, -199119, 61229, 17821, -47042, 423798, -277595, 134968, -139370, 27631, -222521, -486217, 183859, 80631, 244571, -95532, -139706, 40884, 477941, 233124, -248791, -28332, -44334, 369214, 10876, 472813, 98426, -395187, 169055, -241259, 364209, -133155, -66540, 353041, -184827, 26666, -400325, 48223, -185384, 299088, -49754, 10502, -239715, -88304, 315180 },
  { 211938, -139952, -90706, -116252, -102820, -280851, -107000, 166641, 197875, 295633, -221458, 9015, -46107, -93405, -352393, -453534, 196463, 48270, -157493, -100066, 86379, -11806, -264932, -383606, -56026, 118838, 304153, 119519, 105228, -4795, -269242, -35607, 313898, -135746, -87658, -62738, -180206, 311590, -415258, 99945, -52370, -182609, -82236, -198300, 494795, -168316 },
  { -257512, 302441, -66153, 163362, 178930, 166589, 76777, 320146, -93594, -108245, 404460, 75906, 233189, -33444, 40171, -405750, -257802, 307152, 265184, 81147, 57302, -26314, -17120, -344707, -65160, -166847, -45163, -25445, 146066, 211968, 121185, -67762, 246635, 282542, -20337, 194719, 180952, -210335, 138655, -23056, -99531, 137336, 12571, -183165, -214965, 90805 },
  { 42947, -49470, 205572, 106133, -243263, 137189, 335553, 578627, -30311, 167838, 32979, -15844, -102455, 65093, 331178, -257520, 44851, -134677, -293698, -178397, 175571, -35650, 480700, -529350, 191567, -382569, 74682, 173065, -29902, 368611, 46426, 40998, 187021, -236662, -85637, -159507, -276284, 128182, 323836, 152382, 80233, -256650, -158640, -92803, -319640, 104444 },
  { 386143, -116703, -120635, -349260, 135662, 350815, 117707, 65060, 105164, -237330, 95233, -106920, -85225, 168432, 241250, 131773, 205775, 412584, -92669, -158758, 326007, 80703, -51458, -129268, -93044, -241908, -146048, -105384, -18335, 6575, 15824, -292883, 270996, 238769, 309311, 361731, -74490, 94618, -368080, 143954, 129060, 295611, -241109, 200329, 171803, 144571 },
  { -537987, 114218, -71747, 86292, 155287, 61750, 114223, 118451, 142224, -47002, -393706, -14992, -68495, -27718, -201642, -68615, 155279, 51081, -88066, 148567, -156406, 60184, -85214, -142402, -180094, -103274, -77935, -170135, 265172, 192587, -203333, 319382, -177949, -29924, 132048, 280952, 245193, 191827, -22865, -7079, 216583, -63144, -147092, 352551, 65432, -82027 },
  { -193177, 129149, -279318, -393174, 186157, 215654, 91979, -51163, -13299, -192917, 104992, 194568, 99509, 329977, -96555, -107208, 222361, 296593, 545324, 86431, -55900, -411133, -370371, -78090, -190736, -1142, -47096, -59238, -120794, -26404, -80093, -163813, -88870, 104911, -177718, 23217, -138022, 142351, 14825, -17719, -208394, 17780, -43510, -67524, -239244, -25745 },
  { -32707, -196467, 161422, 280826, -423036, 2709, -110087, 99877, -553830, -351020, -97016, -124739, -320363, 118452, -154386, 11888, 126571, 88666, 77752, -227036, 109869, 423875, -181112, -60109, 411441, 51595, 190746, -348698, 26994, -123597, -58053, 181465, -184430, 152134, 71323, 79569, -482356, -177108, 8318, 90075, 67123, -87376, -58310, -134515, 295527, 77191 },
  { -49698, 102491, -185663, 187722, 276921, 201988, -47957, 154901, -160179, 356428, -104100, -309280, 72974, -106482, 344968, -85318, 47581, -88802, 73353, 181214, 30594, 212463, -447840, -256356, -159689, 30047, 34594, -60688, 34995, 37236, -110708, 135046, 30201, -168086, 160088, 504066, 45378, 397730, 19437, 57588, 124127, -97827, 116922, 177735, 396347, -310707 },
  { -140201, -101355, -31729, -161013, 48138, 3693, -299606, 247488, 32440, -31755, 117975, 16687, 222198, -181782, 303910, -113156, -11838, 79388, 163631, -38563, -10531, -83468, -76571, -259646, 68586, -71396, 230855, 83325, -214532, 32775, -198257, 166718, 517648, 173985, 266967, 230791, 228032, -164639, 168848, 49754, 59475, -316820, 81762, 104489, -705270, 109213 },
  { -12724, 254, 243956, -265613, -79125, 36749, -177719, 391232, -130139, 155408, 616188, 269277, -50736, -136715, -215555, -226452, -98231, -85615, -173819, -164491, -444292, -172449, -102142, 183446, -115718, 369260, 20221, -257270, -47812, -193711, -427561, -26745, -90370, 36680, -168591, 142686, 94585, -243285, -96958, 165594, 43070, 9861, -159040, 288771, 11900, 242467 },
  { 362723, -547345, -107496, 105803, 134021, 200132, 72970, 170763, 88250, 138430, -363511, -92723, -145899, 79592, 86839, -73979, -168820, 374507, -149553, 4821, -111255, -265378, 45633, 63940, -237028, 72675, -274427, 179735, 22214, -94269, -313434, -124653, -51510, 2105, 194615, 282783, 23828, -360178, 167897, 90918, -82677, -17620, 69884, 159051, 20630, 187135 },
  { -272241, -314924, -271238, 1434, -15913, 325972, 203278, -210897, -121445, 159301, 28205, -139551, -105854, 229986, -11950, 65053, -122235, -252319, 235457, -125932, 72666, -214774, 192749, 308772, -68556, 247334, -408035, -227600, 285108, 175512, 232079, 43470, 129149, 178836, -152115, 452790, 564493, -218657, 245181, 48483, 90121, 315600, 42515, 93409, 359640, 245345 },
  { 78762, 72021, 54723, 353549, 131887, -265331, 233238, -26610, -338673, 333823, 67862, -280619, -368895, -115843, 347837, -401371, -104335, 66023, 435140, -203206, -200915, 72345, -383136, -229397, 129537, -103865, 236657, -335710, -27073, -42224, -389497, 104235, 342934, -211450, -70775, -226611, -99845, 62171, 175505, -149922, 9183, 376185, -18627, -131742, -100270, -96026 },
  { 106239, 92073, 96628, -163720, -125072, -100992, -205304, -76348, 17407, 39727, -30810, -83005, 202902, -194159, 159417, -191175, 135283, -51980, 51308, -88124, 246397, 242527, -66571, 142757, 438000, 66699, -7149, 52511, -324697, 218452, 29922, -302994, 215326, -197695, 136477, -81473, 115379, 224047, 77111, 24284, -75663, 145224, 7629, -88311, 129850, -24768 },
  { 219028, -112650, -314159, 363064, -20234, -93906, 113240, -165340, -515635, 128950, -119887, -35959, 147786, 255122, 113251, 15542, 42653, -401216, -2736, 92685, 208133, 82571, 277257, 339326, -181166, -320763, -256950, -181457, 246064, -74889, 173731, 309880, -35115, 86978, -11955, -121769, -72226, 235252, 199972, -7805, -18693, 58337, -120939, -195369, -387040, -161925 },
  { -277007, -553539, -220649, -49854, 27125, -74132, 24835, 69694, 499484, -256341, -61012, -333091, -144496, 223621, 102282, 587216, 54358, -81825, 259654, -359680, -21088, -60963, -121146, -105209, -427213, 129581, 99368, -123401, -40126, 374779, 560082, 132111, 199590, -16126, -55895, 287096, -227509, -55076, -161313, 440195, 42992, -102374, 129888, -111597, -174693, 215111 },
  { 120905, -339326, -55754, 180403, 61330, 216442, 231798, -291047, 216201, 168547, 226594, 278262, -31184, -104960, -88530, 17859, -158353, 82645, 57082, 185827, -113947, -446927, 34137, -179899, 289123, -173827, 271998, 93694, 394719, 410749, 216757, 24876, -20349, -264702, -347149, -283370, 164627, -149253, -150613, 152004, 317903, -262158, 195469, 450475, -430623, -114810 },
  { 353574, 216479, 121238, -178519, -69602, -69010, 94721, 16438, -260167, 326294, -416744, 70137, -240564, 139112, 204398, -355433, -11522, 105926, 17462, -146558, -46328, 83875, -286970, 164324, 108208, -297115, 365351, 294481, 31973, 41640, 8476, 95471, 154819, -308487, 53055, 215947, -30601, 174955, -270659, -5976, -151883, 98394, -243438, -114642, -127136, 284730 },
  { 467354, -217856, 176992, -318465, 128594, -71209, -120130, 179044, 305797, 186450, 94102, -146888, -438362, 436898, 92387, -332419, 679551, 271222, -187705, 150659, 276201, 156921, -213171, 25964, -196810, -82791, -134982, 394743, 80567, 59065, 130931, 132985, -124019, -261005, -16468, -118745, 259900, -116860, 113125, -100838, -65926, 307874, -108831, 309248, -312800, 14043 },
  { -274519, -242719, -98323, 522245, 150683, -67515, -252520, 137353, -412609, -150250, -263852, -3030, -95160, 62963, -147059, -474126, -116235, 114952, -95834, 75251, 504847, 237487, -67560, 80182, -209203, 262505, 304301, 109072, -66816, -261248, -133454, 130110, 154163, -159989, -122865, 325405, -46651, 105822, -288804, -91828, 213393, -284931, 64735, 118502, -17519, 167480 },
  { -36209, -55052, -36516, 222850, -177720, -50236, 101153, -144307, -86139, 190499, 127652, -322343, -46635, 52831, -41790, -87772, 7955, -412131, 107534, -194311, 13957, -161105, 444114, 88657, -155019, -320166, 101285, -69455, 416195, 167403, -52421, 31226, -80845, 93461, -56592, 272900, 164961, -28101, -166954, -47287, -138832, -184105, 267278, 132912, 138195, 38146 },
  { -170012, 3636, 118253, 142209, 470799, -100894, -64462, -204695, -401, -162793, 38011, 79497, -158307, 587270, -195487, 331658, -320181, -429353, -10544, -264425, 530880, -208274, 172981, 63040, 204675, 62927, 10503, 286682, 69664, 89900, 31898, 375174, 145052, -90202, -308918, -221095, 250988, 83309, 343375, -160963, -818, -254577, -220504, -41500, 439038, 98516 },
  { -288404, -120970, -101712, 157406, 262253, -134393, 403981, -165980, 172685, 13712, 268662, -359430, -159176, -128008, 102449, -30681, 11145, -43478, -218283, 83697, 120951, -67537, -574635, 117933, 106684, 155568, 342318, 207309, -69374, 96663, -156834, -115638, 34887, -120610, 313, -279474, -255699, -138222, -291033, -103864, -53060, 12892, -178302, -47742, -143634, 264937 },
  { 138926, 903, 29111, -210938, 138596, -250947, -321297, 365233, 173487, -276467, 39119, 351226, -354322, 109841, -104006, -36874, 130845, -1841, 91323, 167162, 425764, 136698, 52390, 132547, -70525, 262822, 177889, -255196, 224314, 426010, 81762, -76943, 112172, -244200, -99988, -9461, 157096, 179048, -213273, -122017, 460467, 130496, 334361, 99742, 145995, 73026 },
  { 100200, -65563, -42819, 101900, 261935, 117212, 145066, 151371, -60595, 105536, -122500, -105500, -215412, 176384, 181297, 200596, 26210, -246381, -262104, 70546, 299883, 25063, -190779, -200360, 56163, -15057, -420677, 221013, -326695, -71341, -1098, 132425, 314216, -203458, 115279, 21930, -388807, 605037, 153130, -41635, 364657, -310892, 67772, 58020, -267237, -362316 },
  { 200913, 240190, -291297, 89855, 191552, 125618, 127809, 186214, -81771, 76819, 242850, -461334, 180539, 95664, 429723, 118599, 176633, 135958, 68485, 173154, 146421, 123992, 108510, -408034, 11018, 116938, 84235, -146794, -81951, 29985, 163921, 148484, 406273, -222191, 82379, -44142, -141879, 155060, 148566, -355004, 172054, -58735, -194056, -276083, -250427, -145424 },
  { -405376, 191841, 164667, -47841, -300737, 194827, 45878, 301243, 161313, -150987, -100567, -165475, -240484, 484651, -359235, 42335, 98783, -266686, -28523, -265852, -137556, 219977, -218276, -48672, -284810, 288456, -356147, -470605, 115608, -433501, -51331, 62106, 418284, -124821, 425360, -115989, -391329, -46755, 114556, -44675, 55294, 62450, 253162, 43927, -106226, -295926 },
  { 318535, 117178, -191440, -122625, 234004, 258718, -13495, 15309, 118088, -48541, -263754, 531848, 132892, 16962, 260452, 95660, 261870, -101109, 68059, -116580, 215801, 21977, -26717, -146727, -123304, 69814, -53480, -244685, 159736, 196673, -133272, -21519, 126414, 62305, 170358, -176953, 78297, 10785, -2906, -254450, 55272, 119203, 227083, 258274, -154583, 178314 },
  { -336628, 194531, -159761, -87703, -652965, -175286, -38648, 119886, 108421, 211989, 165151, -293911, 215959, -12095, -156192, -69043, -257102, -165945, 14180, 241430, 42739, 75587, 256209, -488583, -237639, 218465, -56672, 190096, 352270, -373381, -35083, -292549, -11407, -98591, 114892, -327670, -85578, -70146, -225667, 112151, -329112, 39977, -140593, -77472, -8517, 257669 },
  { -64658, 214594, 63634, -384781, 45472, -128391, -72182, 128979, -122734, 61120, -77303, 262505, -256133, -282446, -2054, 25589, -180084, 73307, -229261, 79197, 104849, -120148, -397394, -365002, 79586, 272647, -137230, -61232, 157584, -149706, 60954, -65788, -165079, 128758, -116001, -208323, -389250, -162620, -110446, -68651, -393716, -303883, 332534, -15313, 68421, -430102 },
  { 141803, 178769, -170888, -364608, -397616, 108967, 99756, -83051, 81907, 343270, 34723, 264665, -91385, 225308, 124220, 48550, 110071, 570019, 110747, -354005, 262384, -52938, 159179, -57490, -95890, 101625, -36759, -5257, -33734, -230656, 291281, -30161, 266960, -61711, -251977, -247779, 210310, -296786, 13884, 369483, 407007, 162911, 21085, 278078, 117860, 117691 },
  { 217281, -23926, -404652, 181729, 251676, 12718, -273429, 249443, 92524, 96990, 157960, -51252, 259794, 178252, -88911, -116515, -207264, -282193, 61969, 80038, 202805, -250833, -66263, 68991, -52110, 232481, 1557, 12231, -257690, 2697, -5318, -123619, -92123, 77890, 71362, -68123, 123062, 33643, 234029, -190263, 44946, 570277, -79555, -84474, 84046, -111750 },
  { 132390, 480154, -186302, -192081, 596470, 12130, -23449, 58327, -534134, 212265, 112482, -117780, 89321, 124075, -19828, 242988, 197953, 166704, 140664, -148439, -165761, 138967, -145441, 1663, 213008, 398899, 7171, 11366, -320164, 114877, -55792, -311161, 205785, -92776, 256885, -169621, 80458, -327488, -162238, 188740, 323166, -55647, -138067, 300612, -280761, -31004 },
  { -125493, 11062, 67020, 203345, 67952, 384949, -95418, 170452, 177085, -124199, 322831, -383410, 139666, 49065, -26604, 155371, 79840, 142654, -161606, 147420, 16434, -113967, 197573, -395931, 262257, 491989, -2110, 123349, 269038, -433177, 165098, 383622, 326843, -8862, -138399, -90545, -276655, 186560, -59486, -371366, 318369, 84004, -136646, 71116, -57559, 226909 },
  { 38700, 87823, -183871, -477134, -43387, -117013, 256054, -6690, 201446, -81148, -111458, -279927, -407874, 224032, -503144, -301794, 151830, -74460, 61942, 70779, -29547, -305917, -352139, 60410, -20080, 80615, -281682, 53815, 108183, 100787, -420, -43935, 35696, -419323, -237512, 38640, -105858, -46731, -237525, 26517, -104953, -239536, -121238, 97471, 41192, -197807 },
  { -371264, 92929, 67097, 111962, 209356, 203912, 369574, 280224, 110838, 2476, 57644, -108488, 120027, -38316, 17761, -150499, 58075, -125011, 133159, 246987, 284964, 292224, 63164, -349073, -324565, 95656, 31332, -313998, -885, -131595, -248051, 126756, 86092, 312096, 12492, -269166, -241112, 49330, -26343, 146644, 28151, 65512, -164364, 322637, -241434, 225183 },
  { -102557, 364194, 54126, -171853, -47486, -60974, -125143, -107815, 166398, -112298, 158132, 271941, 113578, 37572, -312186, 98748, -225397, -196945, 192976, -85320, 513450, 28662, -628132, -6061, 391849, -140489, 356882, -220476, -218455, -135673, 360717, 96528, 104150, 91235, 216119, 247496, 130184, 104600, 200946, -155027, 72078, -113189, -15025, -81172, 250769, 33505 },
  { 313225, 396416, -290626, 8239, 237547, -47094, 187562, 91939, 78432, -33138, -48413, -366572, -183419, 274678, 61090, -365993, 404166, 117458, -170948, 68275, 47917, 356239, 331835, 166065, 59599, 391448, 39922, -123393, -184027, 377001, -88212, -85556, -20658, -62118, 221849, -284026, -241755, -183200, 280746, -1613, -122623, 60303, -81609, 140426, 97256, 103921 },
  { -77396, 97641, 162239, -219074, 310871, 185308, 39426, 298351, 91787, -415264, -220010, -66449, -211935, -176626, 157404, 22469, 123419, -79535, 233888, 214088, 334344, 40682, 287258, 163955, -8887, -22129, -243962, 87928, -36968, 342768, 56483, 53155, 173564, -58213, 212190, 181771, -35211, -358692, 242321, -228796, -159293, 221212, -130920, 349415, -50677, -188574 },
  { 117700, -135157, -134087, -34362, 155820, -206369, 300952, 344352, -132962, -223548, -114329, -47080, 52139, 71264, 98214, 55342, 116263, -175034, -236947, 86870, -52014, -228101, 119666, -269363, 202264, 96327, 378295, 104174, 320479, 224112, 658251, 274251, -147979, -47697, 85682, -10983, -1205, 336623, -23096, -260261, 112630, -141547, 71216, 235047, 29533, -283846 },
  { 145316, 7659, 93239, 39148, 325726, 206502, 111146, -37460, 198068, -248536, 124908, -153192, -139481, 56268, -94677, 325958, 112621, -228177, 105087, 88990, -23292, -357, 509579, -150981, 283814, 202691, 449062, -18902, 62253, 4891, -11387, 54110, -149550, 233384, -63478, -41035, 308581, -44120, 164041, 317824, -194836, 201724, -207095, 105811, -422463, 12693 },
  { -97359, -110591, -9800, 84272, 332502, 180339, -211709, 128408, 144927, 209246, -286170, -228440, -223411, -316821, -32602, 212825, 83350, -271076, 110732, 176333, 30038, -104370, -316736, 147797, -215889, -89678, -79838, -289311, 58654, -22216, -13590, -56845, -229287, -182279, -107824, 285243, 14612, -200135, -44361, 367634, -226146, -76487, -193259, -432926, 3286, 176306 },
  { 282496, 426474, 58546, 247794, -212752, -246883, 72322, 323685, -284332, 52809, -54644, 365755, -217809, -35827, -47826, 471853, -119537, 48846, 90147, 77375, -254244, -57337, -10209, -668, 183537, 140455, 17964, 245645, 267596, 249754, 61710, -185503, -14182, 26963, -488590, 329306, -182085, 44898, -191841, -34775, -260556, 325099, 298379, -146445, -251753, -106877 },
  { -163267, -55111, -76235, -273661, -98349, -204825, 102952, 173029, -111614, -157733, 144630, 22091, 69640, 263777, 89506, 48089, -37549, 189156, -298264, 166457, 119764, 173630, -262926, -43274, -117800, 29972, 546500, 505701, 173188, 252032, -213233, 165457, 226094, -80236, -65333, 354853, 430985, -83705, -140860, -255064, 169931, -116733, 73503, -189757, -37783, -317292 },
  { -68390, -223609, 169399, 251596, -61282, 11163, 73821, -239205, 187627, 52388, 480896, 273190, -10696, 317393, 124074, 158603, 126458, -251418, -337695, -233377, -233168, -306449, -236026, 271431, 102565, 168479, 60567, 104830, 290832, 268522, -67888, 183978, -335970, -24141, 174936, 136394, -12736, -249761, 2312, 215489, 241708, 166595, 79152, 126333, -313904, 285781 },
  { -18713, 136819, 248135, -103092, 122981, -34751, -43141, 394554, -94109, 245541, 234695, 243281, 50757, -202018, 218836, -21574, 197390, -272736, -119180, -50661, 149140, 214144, 83970, 31262, -81958, -128304, 137294, -113599, 407531, -275574, -121570, -99198, -56718, -210768, -11405, -13180, -548, -493441, 119743, 47287, -68106, 296540, -241464, -16208, 118823, 58872 },
  { -3728, 327528, -154298, -17261, -171692, -82841, -282165, 349090, -19876, 64664, -157358, -168904, -248436, -262439, -113093, -144961, 371864, -233495, 260867, 221733, -43820, 29586, -468343, 192111, -47803, 110645, -185912, 84088, -71022, 9396, -308166, -364456, 192918, -263570, 126782, 70675, -505684, -13203, 267073, 93566, -59130, 10301, 316375, -136405, 582941, 146285 },
  { -27624, 160604, 87521, 193400, -458299, -273723, 40126, 125532, -52529, -396840, -157640, -71597, -62270, -305624, -305059, 443158, 385246, -91, 110330, 276796, 15168, 258286, 13607, 11067, 16749, 160420, 167943, -126963, -116124, 108985, -326808, 113928, 404681, -54360, 524715, -62853, 11107, -137843, 275191, 24014, -159419, 112473, 319324, -63326, 169976, 80561 },
  { 197970, 67794, 135809, -55118, -141630, -138695, 184301, 264395, 241669, -343144, -15544, -363343, -326302, -45804, -92816, 79828, 173665, -507674, 252575, -331344, -414680, 105109, -290599, -313954, 13405, 322137, 213138, -115022, -117794, -419225, -18884, 106075, -144504, 156277, -51934, -222628, 222490, 191256, 103314, -5123, 100985, 132295, -348927, 52218, 493716, 150729 },
  { 102752, 272128, 199979, 122866, 410895, -54332, 103771, -311065, -62521, -9086, 80869, 123061, 106996, -382394, -451130, 139185, 151502, 281702, 114706, 194739, 259597, -117977, 184804, 73361, 218401, -113499, 13234, -79505, 359933, -51062, -53085, 272774, 549827, 183251, -61079, -170573, 277940, 199586, 102299, 832991, -56482, -16783, -134377, -376789, 43125, -79253 },
  { -90220, 130967, 398663, 14913, 14364, -347123, 211919, 176552, 334196, -513221, -905, -81061, -241598, -228561, 214142, 422648, 60451, -19690, -216869, 109101, -141821, 161506, 46256, -179132, 280060, 532459, -121209, -232180, 294759, 208484, 143605, -38451, -204026, 134205, 177252, 240179, 141125, 149605, -217690, 348612, 172505, 105022, -60542, -114307, 236026, 2574 },
  { -148758, 72090, -270114, -545360, 172094, 34581, 385017, -272351, -131733, 57075, -267056, -204099, 64890, 96760, -266094, -125151, -1211, 74764, -351727, -75294, 203447, -105094, -308560, -169862, 193189, -128261, -156745, 149961, 67734, 92581, 335741, 81423, -525628, 210666, 158880, 104575, -377462, 204176, 337928, 87107, 85769, 188948, 234592, -74062, -57738, -140538 },
  { 100251, 366871, 218317, -79069, 124190, -339738, 267350, 49596, -65688, 100951, -116020, 150838, 173512, -58617, 61272, 183824, 266326, -252934, -7862, 114287, 133992, 106903, -334090, -110336, -34136, 231025, -261949, 99678, 47676, 275984, -187548, -31445, -112061, 89020, 229118, -26097, -195971, 8256, 208003, -42074, 160199, 70827, 108440, 3402, 30422, 401283 },
  { 224045, 54777, 109531, -169347, -126192, -29816, 60898, -85298, 15850, -108628, -505154, 298540, -131035, -117660, -271093, -72047, 17893, 220179, -88078, -206827, 33202, -9776, 76514, -40320, 8893, 45473, -116264, -16145, 15004, -879, -16675, -189621, -85112, 13219, 54108, 104027, 161254, -110883, -118045, 231133, 20998, -156742, 13849, 222932, 88790, -262415 },
  { 98393, 82844, 663692, -21293, -336244, -75924, -73573, 494967, 453591, 264001, -278313, 246765, 20280, 358519, 257805, -143427, 201479, -96995, 14866, 103574, 24118, 216280, -384202, 220134, 188436, 113572, 119660, -210212, -150138, 154410, -591132, 249287, -41674, 224173, -118998, -222459, -278295, -105504, -289667, 197649, -393565, 550378, 127933, -118840, 350559, -87332 },
  { 88639, 61794, 381291, 241736, 80488, -28992, 223559, 315680, -79899, 125795, -13997, -174483, -114138, -365756, -237765, -39771, 169065, 88815, -179139, 129234, -345193, 52544, 389816, -225940, -312935, -102155, -333944, -322172, -9051, -10811, -173975, -291480, 50310, 163676, 130064, -171127, 284720, -122922, 56926, 334030, 320234, -593054, -65452, 75069, -205502, 443231 },
  { 296901, 11158, -69180, -233450, -359630, 227945, -199636, 11942, -260989, 102296, -126711, 39069, 159118, 259764, -30477, 160367, 203107, -250140, 51748, -136918, -33313, 370670, -96397, 29085, -30905, -129938, -205106, -11954, -113475, -58791, 427894, -11183, 190239, -104905, 105875, -81510, -53869, 79056, -75036, 19876, 124727, 222581, 203933, 553411, -347653, -65990 },
  { -151690, -110769, 1845, -130092, 255933, -340375, -90977, -163786, -186654, -288328, 123584, 80179, -409306, -373115, 114208, 121959, -238672, 629716, 91444, -279308, 984, 300657, 323151, -18935, -17078, -95268, -262783, 138803, -448077, 182945, -96948, -262849, -146318, -142346, 345377, -440653, -361650, -156162, -306604, 202628, -83502, 325672, -349245, 674612, 127817, -9555 },
  { -44777, 23998, -390750, 228811, -278692, -33699, 193187, -54507, -456320, -115764, 219311, -115404, -358016, 304937, -304671, -99970, 78095, 26192, -64841, 94447, 13985, -131054, -200629, -47092, 323833, 134833, 37807, 33320, -79778, 42006, 41983, 65213, 184314, -207648, -75288, -42084, -256327, 118435, 76311, -74691, 96056, -41877, 237916, 207995, -211958, 313532 },
  { 160124, -109654, -40454, -202893, 84890, 97897, -10096, -185885, 160858, 220063, 232638, -163939, 91538, -157161, -250503, 77223, -8834, 265028, -315, 160555, -60327, -268534, -11058, -109024, -236122, -495903, -113242, -130955, 263384, 553, 245084, -47471, 368219, 182942, 48496, 340008, 23449, -289838, 121206, 238623, 111085, -91610, 52879, 42382, -222037, -58389 },
  { 44709, 252702, -60247, 35926, 65303, 134741, 237238, 141540, 356113, 492207, 149839, -477038, 93700, -211994, 225554, 112046, -130822, -24433, 346642, -298688, -259558, -134406, -64836, -8291, -184976, -36914, -129205, -504367, 217385, -100376, 262462, 336490, 128097, 687898, 71815, -30533, 210290, -63929, -167822, -85170, 222256, 85372, -113902, 212240, 286957, -189248 },
  { 262793, -392519, 317507, -74945, -232763, 196037, -83702, -75953, 61256, 139445, -70946, 211845, 174227, -94494, 433, 93232, 35229, 344341, -160262, 255535, 110448, -31950, -204104, 136305, -229399, 321950, -637735, -119620, 391012, -388361, -117778, -140319, 64958, -619334, 562221, 16810, -147487, 130138, 18017, 398095, -84336, 5861, 241095, -208964, -318603, -144663 },
  { -436152, 126282, 47943, 82895, 147167, 5212, 99730, 23500, -329208, 185817, -482196, -233891, -20748, -332984, 19181, -173316, 37737, -301382, -268921, 302674, 123159, -74962, 314098, 29843, -14178, 329925, 279112, 342527, 380775, -79498, -316920, -92195, 152185, -101146, 1274, -19416, -297693, 384326, 157890, 113927, 91711, -100412, -20347, 56499, 180112, 218503 },
  { 94866, 139513, -234854, 134914, -34688, 264776, 14066, -403753, -236821, 148653, 174585, -205042, -703442, -62054, -123549, -267643, -109927, -101319, 31110, -164064, 8502, 40795, 20086, -26612, -344144, -396938, -201450, 401131, 290944, -241507, 199989, 192556, 78530, -54943, -72327, 334959, 216263, -224793, -279874, 429845, -360408, 36254, 85887, 169455, -266114, -199136 },
  { 375012, -85470, 249577, 85080, 28956, -234213, 39215, -396207, 26608, -222936, 167415, 361875, -27037, -63990, -237382, 163928, -48570, 411143, 152860, -292349, 269619, 209652, -354263, -139377, -372003, -33688, -224559, 292503, 9012, -70322, 217476, 408154, 235549, -28374, 368640, 32651, -66212, -144738, 130286, -33272, 97550, 128148, 230807, -58347, -13336, 144211 },
  { -76571, 125736, -312299, 13978, -228842, 346078, -200788, -314207, 91100, -101395, 49908, 88485, 368649, 89363, 320296, 38855, -356330, -218407, 155429, -201358, 88085, 117824, -120081, -22527, 148864, -55482, -43567, 189572, 242382, 243063, -11335, -416103, 113633, 313529, 172746, 227901, 17003, -97598, 252799, 180086, 211493, -144361, 245177, 134748, 522519, 120608 },
  { -37645, -234542, -278857, 183024, -151558, -46123, 82292, -240709, 6, -45124, 431006, -219739, 28896, 412, -132640, 101022, 478650, -247191, -201600, -116633, -148093, -263013, -422771, 144662, 107513, 91019, 261027, -380108, -158790, -337035, -226014, 14094, 416836, 250577, -207064, 227156, -166922, 220830, 138295, -137496, -237256, -347831, -9670, 286527, -90957, -124706 },
  { -48280, 184856, 95570, -361067, 325037, -116993, -278639, 429519, 96536, -280490, 197035, 78541, 81107, 222832, 121095, 181904, 146362, -152748, -152441, -90154, 131625, 128911, -94810, -12425, 78975, -141333, -226918, 36472, 81059, 225036, 330819, 413992, -195318, 231478, 171718, 268711, 310007, -201274, -605454, -178263, 147034, 378635, -352455, -132763, 39632, 56778 },
  { -117214, 337467, 56868, -186263, -36838, -39334, -218404, 207084, 117484, -33288, 191750, 280587, -118169, 326265, -123704, -140048, -169984, -369244, 157333, -423232, 148904, 98826, -366772, -35418, -68415, 246492, 316004, -50608, 42136, -172693, 755, 105703, -107413, 194388, 319031, -274836, -178730, 279591, -54252, -28024, 100004, 467261, -117760, 175031, -590275, -757792 },
  { -371705, -300893, 169884, -357933, -31132, -28973, -130188, -184531, -61590, 89826, 68476, 67823, 88353, -58118, 320920, -451683, -253281, 294134, 111926, 204322, 79309, -89149, -338120, -16562, -106163, 79865, -69688, -245425, 218875, 79105, -171787, 114343, -373709, 383104, -79484, -261324, 141520, -277805, -50319, 17637, -397936, 78700, 338864, 94898, -138326, 292742 },
  { -88255, 144361, -52270, 101966, -51710, -142284, 237728, 390850, 197037, -41714, 274495, 253637, -246221, -110636, 78752, -187794, -245974, -22252, 20350, -24203, -105865, -295955, 114878, 310507, -78208, -10049, -249455, 442611, -209354, 404089, 37417, 236417, 426903, 132988, 359216, -64758, 121613, 371746, -351091, 120888, 124724, 387296, 254001, -36599, -49494, -453092 },
  { -82890, -36833, 161548, -239967, 445317, -120268, -191391, 38111, -461264, 188723, 40697, -175416, 164021, 41045, -333828, 210239, -88277, 32386, 120016, -4518, -245295, 237330, 1116, -54553, -198139, 111306, -288825, -166897, -109547, -14023, -167326, -40497, 5056, -78883, -311278, 173521, -161912, -79697, -133951, 54086, -26945, -266034, -289464, 264224, -137092, -1414 },
  { 40492, 59119, 326413, 191889, 209671, -411085, -101538, 45079, -395503, -36161, 150306, -108074, 26209, -203340, -109052, 99100, 264226, 12554, 30451, 233207, -4427, 313686, 14855, -167698, 69894, -18724, 159348, 95675, 124719, 239451, 332118, 321248, 290119, 262964, -301571, 2106, 214839, -28782, -169789, -5901, 493603, -478364, 203050, -97055, 144715, -3357 },
  { 37058, 176623, 85423, 178837, -280781, 49249, 96257, 185622, -275283, 163715, -127259, 37583, -317141, -193680, -171735, -25435, -349567, -413654, 175750, -254749, -321343, -170485, 136145, -200003, 468363, 9297, 203711, 38740, 272131, -96699, -528041, 33512, -152830, 230251, 407064, 5401, 389519, 110100, 285141, 430490, 355681, -20795, 46883, -74974, 282733, 159182 },
  { -62330, 22536, -328946, -72165, 191474, -835, 194908, -39149, -313818, -480756, 88433, -521696, 137169, 54423, -15575, 282722, -229960, -82862, -176831, -152129, -43524, -15391, -229151, -219858, -67725, 334036, -237582, -108357, 82068, -74554, 361442, -513254, 117973, -32973, 261428, -167509, -98691, -249896, 208985, -187609, -64569, 25663, 63745, -148242, 80800, -8060 },
  { -58851, 68578, -237887, 19629, 174827, 147482, 47147, 93042, -40922, -99599, -101455, 206385, -40878, 136740, 502782, -361357, 326474, 304839, -105764, 105193, 326751, -103788, -29297, -80811, -23956, 81594, -333535, 273499, -390582, 359679, -85518, -157094, 2731, -24743, -91533, -25608, -309876, 33915, 129391, 267399, -125398, 289167, -62350, -88638, -45301, 16314 },
  { 106379, -227776, 247570, 252859, -355288, -11900, 201300, 139272, -128694, -307722, 99194, -30650, -82427, 326431, 259174, -93306, -323777, 219839, -203103, 359500, -229603, 115546, 275117, 295529, 213921, 408735, -538034, 170624, 74990, -228834, 419049, 405479, -77631, 87082, -185069, 31672, -83536, 306210, 99360, -219082, 276266, 367915, 406330, -293046, 478072, 84629 },
  { -243650, 155823, -35377, -81915, 324288, 127215, -142283, -37964, 41228, -166179, -131195, -358335, 138761, 255227, -86871, -8423, 140903, -271722, 91054, 119894, 94845, 260501, -27786, 88211, 23093, 164122, -104155, -66194, -22257, -68072, 508820, 259707, -13236, 138692, 126537, 103120, 195625, -405991, -218243, 181775, 183167, 260879, 174688, 171211, 69722, 147242 },
  { 16976, -195431, 68452, -64640, 107570, 52052, 31545, -15967, -153407, 304957, 54949, -104361, -204842, -97040, 162988, -156750, 185504, -126036, 117303, -200394, 300565, 52279, -86768, -387204, 153807, 282700, 158394, -300564, -107893, -58304, -190171, -48714, -236592, -12681, -83180, -497251, -352511, 98060, 109624, -224662, -382856, -88909, 365563, 264250, -196601, 7667 },
  { -271355, -80150, -81599, -290515, 28292, 42380, -271893, 228402, 98500, 52201, -136016, 133386, -225594, -212233, 70594, -41228, -204576, 39210, -245620, 41812, -18686, 649570, 106847, -114322, -65042, -226773, 593344, -172045, -304019, -188137, -53608, 59382, 230837, -425345, 18148, -48481, -58262, 144041, -158438, 76527, 63388, -208145, -346509, 136894, 134809, -595625 },
  { 151460, -59013, 499971, -25382, -130388, -298357, -83903, 8774, 212324, 116355, 83915, -33954, 85874, -158640, -74668, -196889, -78222, -155927, 419999, 28433, -330585, 106146, -380229, 301711, 438356, 106934, -8593, -50861, 268633, 10218, 17531, -117696, -299571, -125587, -157676, -13445, 112921, -38412, 149698, -381935, 239724, -431954, 146400, 68209, 278541, 18463 },
  { -10520, -502528, -37157, -133009, 156148, -25684, -243708, 172232, 12967, -191803, -203994, 105626, 240498, 460947, 43580, 707430, -348825, 112524, -288644, 12415, -129501, 212731, -300544, 424177, 232945, 264575, -316474, 430078, 460754, -240098, 27516, -25447, 201482, -303371, -223300, -89491, -19242, 157015, -169250, -102476, -296752, -30917, -62300, 103214, 85006, 359027 },
  { -203207, -35140, -242871, -152803, 57419, -381374, 44313, 143799, -203718, -298010, 36692, -59814, 244131, -76844, 54789, -27707, -330910, -305265, -253655, 280177, -200850, -114032, -80785, 13165, 76484, 142479, -225273, 262210, -460727, 117351, -86566, 9336, -108313, -28602, 52008, -152720, 91899, 238744, 21127, -23316, -310820, 313085, -136507, 115102, -70416, 324215 },
  { 224970, 22736, 223176, -4271, 7226, 259711, -475024, 237812, -304457, -576708, -341563, 74372, -379008, 17715, -60878, -215507, -101834, -154688, 190208, -104042, 18094, 24035, -154986, 140146, -254452, -65379, -157194, 200281, -104365, 44637, -57703, -19505, 169367, 284348, -529766, -4281, -106072, -577764, -187827, -105017, 57340, -194093, -117142, -178785, -105814, 485906 },
  { 296134, 4347, -164983, 17390, -143773, -266392, -147472, -148451, 69613, 352702, -201265, 79423, 22610, 157437, 186634, -6843, 98196, 194296, -44030, -295376, -20459, -252806, 211761, 164883, 77662, -49217, -224451, 58832, -83184, 160276, 106189, -93634, 127060, 127346, -248134, -18016, -25477, -127767, 116310, -63098, -371964, 131631, -22844, -279169, 179201, 85714 },
  { -234987, 93751, -19005, 230109, 369725, -219829, 100132, 57744, 261223, 194560, -61810, -263935, 74833, 56742, 141090, 484104, 87860, 84840, -175475, 248427, 90969, -41400, 334509, 127615, -379699, 73180, 378427, -244068, 141908, 67159, 71386, 55298, -218974, 42616, -159323, 402721, 107714, -46737, -25989, 8668, -81427, -150781, 160417, 127495, -123015, 42377 },
  { 114352, -33598, 153894, 300443, 355696, 67657, -341318, -7332, 106815, 50985, 23041, -193602, -141685, -558486, 198697, 119110, -180311, 108515, -149821, 153609, 33407, -131047, 78591, -267535, -153676, -468217, 128747, -221435, -235355, 183028, -73579, 417318, -169625, 274231, 134240, -90604, 96938, -44724, -437699, -118843, 160416, 163842, 42731, -42919, 216589, -89516 },
  { -37882, 83741, 14907, -179461, -96111, 107404, 15204, -66332, -296200, -180191, 114796, 82961, 217918, 32532, 40183, 25145, -37566, -142489, 93404, -98728, -119304, -298892, -178731, -39997, -263212, -114818, 321820, 296952, 239081, 55882, 547, 159714, 10249, -212697, 68353, 207577, -83934, 30784, -95138, 189956, 113525, 268108, 236441, 287182, -394146, -65022 },
  { 56465, 312480, -65243, -46443, -159522, 175878, 57081, -117171, -215038, 162942, -19776, -157166, -121017, -162729, -461593, 42770, -280889, 25758, -433735, -51198, 19215, 97989, -222996, 54464, 47185, 156531, 534657, -48463, 195428, -156795, 197147, -277488, -256349, 46859, 19353, -113967, 503109, 194715, -314646, -129932, 321217, -278549, -14986, 74088, -133262, -635411 },
  { -327872, 399568, 108937, 99428, -28977, -204060, -209409, -230164, -135167, -383371, 1988, -345413, 253251, 162115, -138824, -316370, -10510, 120914, 75156, 226029, -59598, 133554, -177811, -21905, -175736, -368603, -271699, 214231, -286247, -235986, 382432, -146257, 366043, -151930, 97370, -52995, -209255, -136393, -153842, 18906, 169127, 143541, 144285, -243306, -61166, 236461 },
  { -116926, 177039, 52482, -50753, -277543, -86821, 111679, 108505, -129014, -231510, 106401, -43366, 79042, 117440, 125161, -15436, -37722, 200430, -172050, 78231, 320489, 98211, 301904, 216487, 93270, 49238, 114654, -206042, -464240, -296493, 45730, -275297, -4787, 77747, 219118, -153020, -351692, -57092, 40118, 253533, 267775, 77779, 17025, -196878, 313790, -167071 },
  { -2486, 277461, 182130, -88108, 114814, -313933, -138645, 531296, 528215, 322308, -3995, 60989, 248662, -19945, 240186, -49809, 291861, -41988, 98283, 170167, 12786, -33811, -15493, -94627, -468658, -154133, 127211, -94097, 15922, 392430, 119792, 89006, 361185, 6385, 280581, -183997, -110527, 75402, 195913, -223632, 233774, -245932, 100297, 629565, -240099, 179020 },
  { -23943, -163505, -336753, -312924, -128891, -274098, -65094, -409481, 250005, 121844, -267496, -127832, 270831, 360737, 34277, -64837, 43691, -217197, -303098, -743970, -75636, -249215, 31908, -15269, 81887, -495259, -173890, -271178, 331186, 126416, -232105, 72992, 190213, -45831, -358758, -157342, 301638, 564743, 12355, -133458, -142396, 18394, -287679, 105329, -129426, -80681 },
  { 410282, 30398, 739476, 156905, 177914, -9140, -196300, -288253, 322321, 150053, -520954, 148691, 187088, 213890, -18391, -33895, -177280, -9218, -288751, -479781, 137425, 323469, -214918, -393410, 73396, 212497, -91296, 166660, 309980, -178534, -59048, 405375, -91864, 231899, -25870, 89303, -289804, -261271, 9788, -120862, -217988, 62056, -288566, 47722, -199921, 197538 },
  { 66954, 114311, -33858, 132712, -218764, 99949, 221741, -460214, -518175, -23349, -42287, -228729, -373056, 108329, 198655, -407257, 74930, -80159, 146082, -127630, 156756, -334138, 130111, -62679, 11136, 52408, 316323, 39967, 175046, -180906, 149827, 54546, 46100, -218774, -52602, -5865, -137240, 47920, 3013, -21962, 145058, -22045, -567346, 210595, -393388, 166872 },
  { -264596, 175749, -87284, -34477, -232195, 23862, -4552, -373852, 15002, 130654, 550351, -181682, -277720, -398992, -178089, 362626, -30848, -197813, -45346, 320081, 71878, -217407, 12501, -191279, 276342, -142846, 157417, -160031, 241058, -380321, 49826, 76025, -187063, -128256, -239443, -126402, 19518, -244198, 446431, 95680, 71875, 227174, -77473, 84226, 16611, 208323 },
  { 145741, -233975, 86167, 47017, -216541, -528857, 112689, 283393, -56934, 481138, -144675, -352747, -78682, -220160, -180168, -323376, -61757, 269790, 151420, 185577, -189840, 47598, 136065, 273570, 548834, -42563, 92202, -212338, -473598, -340996, 151492, -193585, -44884, -183981, 262549, -17673, 133712, 57406, 78216, -17135, 210531, -107636, -126677, 27271, 81851, -239960 },
  { 56493, -324454, 182670, 181223, -12093, -164924, 76480, 256876, 56524, -59652, -251115, -69686, -172955, 217626, 89503, -322318, 78800, -270048, 217381, 389148, 5339, 90079, -366503, -432434, -327402, -546517, 158318, 110171, 273295, 522913, 127222, -189490, -204716, 129443, -206809, 156848, 280608, -79538, -205888, -168491, 78142, -468498, 421191, -418944, -224073, -256918 },
  { -545517, 32701, 277750, -181362, -43489, 262055, -52692, 273023, 38574, 179831, -76043, -210902, -172000, -275542, 3286, 395673, -43278, 86697, -232199, 28569, 178502, 151550, 162769, -87619, 53287, -359445, 184170, 85858, 27802, -169408, -93442, -291171, 76027, -70915, -63115, -124160, -66380, -72967, -59356, 451155, -349009, -151897, -624401, -73346, 334365, 102765 },
  { -166025, 70854, -171970, -80121, 143852, -220513, 153101, -121854, -417705, 115092, 565966, -73689, 153205, 40787, -255087, -365278, 355772, -295189, 63329, -204022, -138164, -104646, 13416, 20991, -249950, -73334, 364329, -127972, 228898, -120099, 152729, 208252, -89711, -201107, -281810, 477429, 71315, -62812, -358046, -225354, 136195, 111157, 63817, -166289, 517193, 192503 },
  { -167088, 256633, -71776, 355041, 192784, -257682, 232600, 274843, -303589, -131685, -103650, 221974, -60805, -144773, -43590, 212937, -356591, -76445, 41278, 31465, -177574, -299178, -260216, 35690, -39024, -166860, 30930, -193115, -272010, 5325, 200894, -200260, 164773, -35777, -89444, 645535, -116448, 418647, 96068, -493812, 143850, 137599, 5346, -244067, -337262, -26207 },
  { 107374, 268800, -86048, -222390, -151418, 20201, 631099, 66528, 386648, 243611, 403259, -71605, -202, 12119, -130097, -15143, 842, -125827, -80681, 151603, -129545, -401155, 227180, 11289, -53783, 85857, 48849, -153402, -145207, -319476, 87506, 8777, 4648, 246358, 238879, -20828, -160600, -31499, -96229, -235950, 122235, -65132, 208589, 3560, 169772, 77911 },
  { 113906, 30592, -162649, -56782, 57597, 199514, 15887, 143757, 65405, -628922, -253644, -125775, -132211, 62640, -159583, -235241, 412203, -161711, 183656, -70324, -163895, 114629, 214026, 360772, 66371, -175042, 367406, 86771, -148832, 154275, -369916, -110643, 426335, -132830, -331342, 12822, -360164, -11643, -230612, 165322, -23804, -153575, 5664, 132491, 430615, 286100 },
  { -192983, 273867, -9763, 65931, 109712, 371676, 159599, -140072, -196215, 172446, -83098, 59229, -283183, -720340, 262985, -561729, -314481, -63126, 89344, 21719, 223590, 42669, -346065, -166889, -396254, -209447, 153748, 246162, 237317, 47200, -19145, -143194, -261946, 35600, 176128, -131275, -980, -105499, 299255, -428331, -177313, -127511, 319293, -136872, -32498, -30199 },
  { -34183, -456720, 38047, 55388, -90275, 52436, 142650, 107291, -337313, 73564, 524008, 160151, -321364, -354145, -74218, -21587, 69134, -216680, 122561, -371127, 109275, 185277, 181229, 286826, 48420, -620240, 437663, -313502, 99299, -115222, -138509, 21355, 245654, 109583, -265957, 751, 81574, -138028, 19996, -106479, -118546, 113599, 93731, -11309, -351573, 275330 },
  { -118727, 16849, 372369, -117210, 71887, 71796, 201145, 445587, 550424, 87931, -100264, 46016, 33159, -488087, 102505, -39440, 394792, -246706, -173297, -109557, -237583, -150333, 244973, -151489, 146890, -171706, -224924, -145183, -213320, -18177, 20884, 104618, 178855, 279247, 110461, 8611, -5232, 38509, 246838, -94917, -40068, 189937, 214986, 123154, -216141, -23922 },
  { 88227, -20868, -234626, 354888, -177327, 73148, -78002, -19979, 335563, -242975, -96383, 280629, 76280, -421152, 354021, 100579, -17484, 230330, 443052, 163888, -239528, 338627, 48297, -114854, -138941, -164710, 74545, 58960, -172746, 367313, 146620, -7471, -103190, -269831, -70990, 188635, -101005, 127135, -425161, -130860, 14443, -73920, -122997, 286229, -299644, -44425 },
  { 149669, -8540, 731723, 63440, -326090, -166818, -36292, -22959, 150334, -18977, -242437, -92571, 40118, -63588, 32391, -19523, 240545, -34754, 170525, -104994, -115945, 139066, 91766, -162486, -37177, -95035, -580721, -116153, -48930, -96812, 217044, 102702, 408334, -135660, -203770, 83567, 189133, -204152, 160813, 179722, -234861, -64170, 9321, 147119, -207587, -30739 },
  { -58647, 407467, 55967, 120401, -97558, 30532, 3377, 87376, -276676, 289145, 27061, 190111, -159058, -125010, -204018, -53434, -172487, -111802, -195353, -315347, 198392, -122770, -111788, 101744, -255204, -112834, 147908, -113537, -316096, 1881, 518759, 303217, 88990, 152101, -369159, 313063, -425550, -441785, -278982, -316673, -44868, 156957, -384525, -101860, 113435, -234844 },
  { 65454, -174770, 236612, 143558, 96348, 208888, -128394, 33608, 138005, 368778, -156100, -493286, -250820, -5696, 188625, -190150, -111864, -163930, -71679, -22716, 188832, -344599, -135546, -293496, 245391, 321021, 356528, -210463, 313480, 13489, -477651, 278451, -5479, -146775, -104800, 162787, 92727, 143508, 14575, 64495, -20372, 271258, 131032, 179900, 290435, 68135 },
  { 81547, -81606, 11817, 116004, 39003, -28848, 165311, 231045, -370247, -328561, -47314, -103078, 8540, -116529, -63366, -324073, -49319, -541095, 70625, 357032, 4571, -9985, -117416, 55395, -171529, -112967, -382786, 344654, 474455, 91780, 351462, -162586, -49323, -520182, -268180, 47067, 309192, 30104, -42604, -116118, -108067, 79390, 53302, -522616, 135059, -245102 },
  { -75828, 55555, -128766, 77991, -35006, 305875, -154759, -144877, -90532, 206741, 152009, -86774, -224211, -63055, -398957, -9968, 98340, 110131, -131970, -80563, -79239, 137694, -173885, 49010, 273810, 336381, -190252, 61021, -46362, -246001, -100550, 271790, -41196, -79392, 355238, -173979, 68431, 61126, 254527, -162393, -212869, -144868, -308115, 316109, -63655, -55193 },
  { -417106, 215031, -95295, 55281, 109553, -86156, -266057, 128559, 94108, 477955, 210825, 29238, 66090, 106996, -283459, 306641, -289410, -152763, 354229, 73508, -300445, -324132, 232298, 93967, -97282, 128805, 347917, -117491, 17841, -267416, 466001, -30729, 179749, -115184, 235960, 423505, 26847, 50628, -181644, 617484, -72368, -63386, 209255, 161807, -57393, 482676 },
  { 140445, -227588, -389446, -105796, -285058, 1933, 217350, 492072, -170719, -97788, -162706, -114183, -98471, 348856, 97631, -33637, -12412, 91130, 15165, -192040, -376086, -226087, 189785, -134756, 296500, 82578, -186108, 31308, -312219, -409679, -210101, -144784, 162703, -215781, -24668, 394248, 58743, 276426, 83007, -81699, -316953, 212400, 362875, 245957, -164896, 118882 },
  { 320960, -160136, 182854, 256528, 344261, 145368, -366295, 259817, 80274, 182201, -204454, 35766, 51593, 156849, -29816, 265040, 108469, 226272, -206055, 104826, -9945, -12462, 134378, -147524, 113514, -50398, 243059, 223227, -35790, 5945, 431013, -146959, 92483, 190181, 181228, -319553, 229029, -160187, -47198, -23959, -273393, 144856, -52079, 186755, -87715, -176678 },
  { -49617, -389869, -339636, -63587, -58239, -190523, 5768, -1251, 3716, -60518, -204176, 87258, 28691, 424901, 72626, -7646, 198746, -102516, -534860, -61836, 104604, -62215, -424175, 292910, 102318, -127886, 127314, -65124, -61660, 169594, 283808, -297489, -2686, 32032, 11473, 182677, 155604, -49101, -262854, -161431, 112607, 340756, 24496, 234992, 87852, 24934 },
  { 122218, -208589, -138796, -103437, 192446, 120096, 66481, 5244, 303142, 191692, 201509, 8475, 23526, 108956, 264736, -82868, 18461, 54478, 52921, -158126, 337515, 437544, 75673, 154320, -78744, -297576, -211369, -36904, -63322, -78167, -233568, 127403, -153970, 250423, -127965, 33978, -85511, -164596, 77357, 77901, -235172, -25612, 122983, -210666, -283036, 66108 },
  { 342249, 134933, -652646, -16051, -48547, -4371, -124838, -80997, -50850, -124029, -22676, -295859, -103478, 134848, 162561, 197480, 282207, 124781, 9318, -17438, -139944, 367420, -129439, 54759, 62259, -26648, 259732, -138606, 20684, 106760, -223062, 593538, 178013, -32399, 200539, -55010, -71592, -94872, 185461, 310558, 209439, 72476, -44556, 131626, -104397, 241468 },
  { 329682, -82583, -59471, 229499, 301460, -208423, -412550, -162282, -138367, -5832, 278625, -103616, 191333, -59259, -304963, -359271, -91345, 80471, 127439, -172941, -71999, -87520, -161657, 312013, -27774, 79490, -340232, -49918, 50003, -73410, 51253, 38405, -28387, 23065, 120234, -39282, -74737, 303662, -255395, 79061, -210686, 260738, -294489, -83686, -49402, -17714 },
  { 131123, 369366, 384770, 139304, -140376, -154683, -90705, -153681, -7409, 211652, -153327, 7289, 42843, -255578, -173560, -120220, -36105, 258780, 160506, -216227, 37497, 253377, -187490, -564693, -102226, 283218, -29832, 65427, 198654, 50352, 78746, -230672, 284011, -316898, -70030, 107513, -66771, 235284, -235918, 46607, -376442, 291818, 224156, 282686, 48163, -27516 },
  { -99928, -1319, -252511, -74367, 61263, -417909, 40327, 163049, 5114, 72790, -387931, 6649, 27918, 175899, 530549, 31483, 314319, 241184, 41614, -47082, 44346, 226615, -61378, -174470, 94253, -62576, -57361, 68915, 237159, -96641, -256480, 18952, -195628, -158208, 289314, -139748, 33830, 104607, 269108, 116650, -169664, -124769, 204114, 4525, -96358, -367968 },
};

#endif
