#ifndef W2_H
#define W2_H

#include <stdint.h>

const int32_t W2[64][128] = {
  { 39396, 10859, 127829, 91226, 202001, -136140, 82518, 32276, 264331, 138402, 7418, 92372, -81480, -89882, -32432, 175561, -49089, 195068, -134966, -234775, 47598, 28975, 104827, 177229, -169752, -110721, -99656, -17100, 48233, 138326, -126723, 36162, -12194, -116914, -160132, 194253, 134333, -8583, -73083, 170369, -54401, -72270, -164349, -70304, 218257, -9934, -78744, 116339, 59620, -113278, 198319, 71426, -51962, 125789, -40252, -210339, 187362, -224658, 163969, -324859, -4009, 55694, -31986, -177699, -202321, -978, 69739, -50988, -62616, 38699, -26645, -87657, 61374, -47774, -125533, -94101, -11623, 230514, 65116, 125115, -75235, -6971, -60467, 28381, -48951, 14259, -38664, -55385, 99588, -201814, -62954, 10521, 103675, -21230, 44254, -2353, -35588, 94003, -56908, 98614, 59598, -17163, 141011, 62406, 82836, 73631, 230803, 162846, -114995, 83935, -121765, 129852, -1260, -81394, -204117, -150546, -152820, -113976, 182128, -2405, 2306, 61687, -143766, 138809, 140117, 4036, -169499, 11463 },
  { 21480, -65540, 44119, -103711, -8696, -39577, -266435, -23630, 268363, 117227, -44264, -59001, -52411, 86896, 167304, 95264, -52779, 9817, 133398, 88887, 27937, 148729, -98923, -186585, 403698, 117763, 89924, -73003, -120152, -49604, 96278, -25527, 122855, 143648, 57561, 252542, -24057, 254353, -104146, 304597, 221870, -4018, 400296, 44391, -144285, 309734, 123331, 221182, 219621, -50388, -212486, -164193, 83128, 21295, 148870, -97634, -57778, 53752, 123498, 131548, -307176, 248590, 261733, 170603, 150274, -225980, 52479, 375437, 100825, -65782, -85483, 88675, -50565, -167873, 402726, -242554, 163354, 132260, 204076, 82009, 45634, -123166, 30968, 249805, 93686, 279835, -43205, -11364, -339330, -74857, 50261, -15692, -53427, -62623, -27185, 47848, 222592, 141956, 269500, -22814, -32329, -86757, -38493, -41919, 62081, 243807, 102094, 9029, -249999, -218345, -177387, 22088, 511944, 35366, 98057, 30059, -27845, -146536, -65984, 71618, -15105, 117390, 8524, 55517, -56321, -7509, 316303, 47123 },
  { -64684, 19083, -131790, -36877, -151760, -5340, -102497, -77749, 814, -71748, -111978, 48801, -57396, -93296, -92606, -157053, -157873, 120166, 59453, 196761, -26042, -266386, -25451, -77496, -53446, -94733, 3877, 178929, 210932, -138445, 29788, 41339, 44807, -155350, -9171, 58365, -118329, 48495, -77742, 9915, -14177, 260045, 244652, 26690, 262390, 88160, 85661, 41434, 74887, 46725, 98253, -12252, 93829, 181835, 56551, 175785, 189433, 65952, 128728, -87473, 270112, -96601, -35282, 91946, 37785, -32514, 126026, -27906, -102352, -76296, 189785, 96886, -101903, 170451, -78085, 124936, -92412, 131301, -18737, 132522, -5815, -63967, 4969, -237682, -116232, -166555, 212134, 15761, -97726, -68066, 25030, -47650, -232462, -157685, -176429, 19123, -54656, 135021, -16176, 10258, 118704, -90146, 20975, -163622, -49649, 148527, -26251, 65377, 630, 107953, -80023, 15845, -59613, -108625, -121332, -41038, 21058, 134053, -23127, -87476, -154712, -42684, -123839, -372696, -256184, 72291, 165291, -115261 },
  { -87274, -20328, -81358, -87310, 61175, 129111, 25428, 13020, 46872, 114815, -35119, -137920, 197046, 150344, -15899, -65068, -337652, -82616, -254467, 96479, 10356, -89515, -98022, -299549, 318042, 150836, 254960, 125988, 269024, -398959, 37036, 108160, 134212, -74296, -55048, -139115, -27124, 26577, 237321, 40654, 23191, 4224, -120151, -85381, 130531, -41680, 285672, -50131, 151712, 63635, -6369, -34274, 25988, -116861, 176320, -62330, 255105, -27067, 133546, 104771, 305854, 36953, -126832, 166155, 37321, 233559, -257839, -232324, -64208, 163155, 419553, 236248, -19589, -14518, -16857, 199205, 107450, -191566, 224168, 437332, 92469, -15550, 105350, 162601, 214746, -296037, -34360, 12555, -34505, -91709, 162839, -91456, -37208, -24497, 168345, 42661, 151884, 178232, -321843, -45882, 18116, 438765, -22837, 158620, -149228, -45859, -38798, 94323, -140859, 110746, 144546, -169321, -90162, -236584, 75100, -9289, -65735, 87003, 73336, -189797, -81702, 21348, 160327, -156407, 184438, -62035, -67051, -69577 },
  { 93468, 78891, 68127, 291360, -139109, -95819, 97442, 67429, 2257, 37480, -74893, -39943, 146062, -94579, 82577, -156725, -182894, 25857, 73728, -75406, 33043, -84726, -102211, -121334, -151991, 63060, 89334, -17447, 37450, -153310, -17233, -38269, 36923, 111908, 108224, 36427, -157720, 24550, -112093, -14506, -179571, 97804, 136188, 241259, 129106, -226921, 73340, 180533, 20060, -8525, -60203, 151779, 110678, 20587, -4168, 50194, 128632, 16797, 36534, 92333, -88338, -29713, -164823, -80119, 151487, 179012, -63476, 94012, 153004, 99020, -45683, 78978, 83946, -175682, 6156, -122867, -47808, 7880, 31425, 54504, 65139, 274148, -77719, -61009, -131402, 34000, 180771, -55198, -137746, -42899, -234146, 202767, -74008, -104811, -18968, -8258, -203071, -32027, -90202, -38876, 72369, 84114, -48455, -24287, -154088, -151681, 20798, -185771, -26970, -48258, 20992, 99731, 7832, -208876, -28388, 76108, -18955, 31942, -269880, -105587, 53117, -11759, -268225, 229973, -82329, 40012, -107381, 77457 },
  { 31838, 84735, -60832, 71984, 24517, -151980, -38530, 128188, 3067, -87734, -159279, -17694, -105863, -62899, 48273, 39044, 55439, 61745, -277803, -93301, 30477, 22667, -19718, 76201, 131583, 142776, 106644, -557, 135486, 9863, 162579, 7147, -127255, -119127, -6182, -70858, 41075, 205103, -61113, -285797, -133854, 99602, 59220, -181681, -113679, -176976, -92154, 60259, 37093, -206720, 252436, 191593, 343895, 5188, -342559, 7740, -70424, -128440, -89966, -149728, -33139, 97858, -150141, -117104, -19172, 112395, 80536, -54000, 117210, 121787, 79101, 21867, 64641, -61701, -140937, 90214, -61679, 80197, 51318, -69735, -81338, -178722, 34277, -300421, -84960, -7735, 2177, -36599, -28178, 23117, -94700, -18122, -363079, 189478, 133915, -109744, -4079, 88296, -10463, 94241, 1554, 69669, -110764, -54764, 25432, 59499, 65407, 80950, 70430, 43264, 233005, 56092, 106372, -84975, -50177, 32477, 162100, 70744, -43666, 160702, 60030, 37976, -83440, -100014, -81119, -174845, 113636, -49169 },
  { 78386, -226177, -87145, -126676, 188856, 176320, -68912, 5103, -55454, 157751, -136753, -285692, 54670, -111496, 127322, 89784, 88421, 2878, -186280, 7768, 290680, -142124, -214228, -97421, -99114, 23467, 56913, 160961, -138528, -23689, 41363, 112803, 67225, -100889, -24114, 109493, 23343, -195560, -40772, -6668, 79432, 283607, -35512, 318479, 85515, 64887, 101437, 144159, 13835, 39628, 305806, -80752, 80929, -25735, -122086, -73215, -127098, 136423, -87606, -20475, -208343, 55021, 147439, 94609, -152129, -177568, 16493, 259153, -77360, 207593, -135928, 33955, -217392, 43002, 923, 35176, 12933, 92501, 36357, -117755, 163081, 43572, 16983, -65595, -139683, 109883, 62641, -46073, -67999, 46362, -50471, -2129, 7325, 137568, -109823, -12700, 12871, 160191, 40247, -84596, -76692, -7066, -147452, -9732, 32114, 125628, -4588, -12112, -122105, -117375, -84956, -32263, 19761, 13611, 461, 280505, 104611, -29423, -157743, 125883, -176272, 22481, -73763, -46698, -120981, 161341, 52976, 72890 },
  { -413285, -4751, 45038, 188838, 135727, -86869, -47652, -205271, 167914, 269614, 23737, -46823, -78598, 52300, 38480, 161369, -28881, 53325, 11720, 55186, 37963, 32561, -82859, 5815, -83368, 83362, -86778, -58769, -102897, -158032, -61120, 148450, 11213, 285003, -58420, 248145, 195043, 149950, -88603, -57876, -63709, 59693, 162660, -20133, 154131, 170278, 93537, 39619, -32032, 8294, -20977, 26364, 167813, 82366, 13642, 20247, 170965, 89765, -68280, -25030, 157285, 266233, -49028, 89359, 142707, 88003, 15615, 141987, 15700, -68480, -79229, -4059, -7657, 13769, 144426, 43147, -152982, 80434, -101970, 83635, -21560, 49735, 107619, -7547, 291313, 271579, -109065, -78615, -237397, 84960, -166644, 98966, -128486, 195914, 10182, 84399, -116707, -89300, 38581, -136919, -10714, 80339, -22604, -86474, -140703, 15822, 200780, 1019, 30636, -173995, -176962, -5199, 204748, 96018, 127766, 101207, -29926, 141026, 347710, -68272, 104850, 269036, -366150, 299608, 31879, -106573, -88413, -140598 },
  { 20930, 4843, -109058, 32774, 27083, -32422, 99624, 10370, -179940, -182083, -9187, 129785, 62911, 136675, 98984, -256013, -54767, -176783, -25605, -17894, 119780, 44651, 3382, 106468, -115816, 330576, -246116, -74449, 17366, -140007, -111036, -268808, 117423, -255896, 57153, 97050, 57912, 29473, 163303, 106322, -40110, -130406, 42537, -27864, 63977, 268249, -6628, -55991, 103646, 91655, 315253, 4258, -117645, 86588, 131725, 113137, -52830, 263150, 66472, -297730, -170651, 135196, -111344, -176621, 123739, -248723, 133795, -172416, -22072, 10252, -138748, 144319, 57381, 21160, -70735, -165111, -98629, 1092, -44401, 34116, 167357, -33032, -121757, 16997, 90766, 250469, 157628, -121950, 50152, -42078, 60575, 22203, 36040, 323958, 89831, -35918, -84354, 177173, -16906, -285869, 198916, -25702, 7338, 196380, 78552, -44985, -171902, -87788, -110662, 43202, 158884, -213078, -206971, -176247, -9292, 143989, 79291, -44465, 100004, 54847, 155820, 156825, -80346, -50993, 313785, -88529, -31466, -55627 },
  { -60152, 98209, 45681, -148908, -28269, 175404, -67081, 45222, 66272, -19928, 283497, -97015, 153865, 47785, -50866, -53524, 25269, 48158, 102598, 44789, -37094, -55660, 165042, 175851, -362669, -121041, -37017, -78757, -78687, 20418, -17412, 202467, -207807, 30306, -168602, 52340, -25243, 175662, -168180, 84865, -27742, 10566, -119688, -90728, -65696, -18544, 34768, 122150, 99647, 272802, -118743, 10408, -157568, 82044, 194820, -145723, -112553, 2427, -219738, -157166, 167711, -101570, -37347, -122246, -102532, 248322, -36814, -33165, -5237, -95876, 80036, 76869, -159067, 121599, -293510, -78570, -50370, -29917, 127810, 90414, -163557, 18793, -304387, 241671, 50267, 193966, 67996, -51187, 38532, -21738, -52890, 122278, 85115, -35937, -105625, -87254, -221316, 75563, -64279, 152006, -21847, -59663, -42786, -77049, 59924, 78311, -332324, 158535, -33264, 241640, -114013, -197334, -179232, 35737, -262364, -226456, 100060, -113766, -185785, -16835, -106875, 67755, -215783, -68093, -98654, -78529, -10151, 24185 },
  { 172829, -112990, -79615, 31508, -121720, 64322, -63321, -35213, 301706, -232009, -295599, -6796, 56192, 168640, -113217, 230959, -16181, 101933, 74451, 89096, 115390, 6145, -133999, -45851, -109899, 1673, -96670, 85371, -171040, 48956, 78359, 185342, -87421, -17531, 30004, 167164, 133074, 204580, 5405, -137004, 158996, 17382, -8578, 78009, -5724, -34688, 11168, -82083, 154908, -112604, -195548, -62162, 148259, 53400, -111429, -210513, 24647, 241994, -206445, 84988, 118207, 124989, 169442, -49108, 298271, -200880, -124421, -97920, -99256, -37516, -155439, 34113, -79778, -16298, 18167, -175244, -31184, -21777, 89118, -70378, -37395, -117035, -1002, 19231, -24054, -20908, -249363, -230374, -90541, 136429, 1736, 151862, 196136, 33937, 27198, -67620, 14143, 126468, -231352, -39570, 104560, -138483, 21291, 52877, 13921, -94315, 207084, 134930, -75659, 37312, -48633, -203874, 40723, -6588, 101043, -44736, -218835, -92886, 83196, 38499, -66314, 164178, -71504, -19321, -133564, -145894, -199119, -248307 },
  { 178098, -71770, 30725, 113725, 122996, 178235, 37602, -98200, -193305, 122883, -87248, -166673, 1661, -53660, -97923, 312827, -142232, -1221, 218261, -104454, -34830, 64655, 86333, 268948, 205714, 152454, 282792, 189999, 200820, 192746, 89609, 25003, -222459, -34893, 211790, -81819, -90495, 70531, -12301, 27361, -28685, 15839, -146346, -261034, 70799, -175283, -35278, 28648, -39485, 73063, 104394, 253163, 200043, -35438, -185898, -58045, 52604, -124190, 79770, -191221, -195551, -127501, -89527, -181554, 37712, -29274, 55270, -99326, -146421, 119767, -23692, 96103, -257213, 246063, -12192, 2410, 20137, 71832, -24804, 534619, -70151, 251522, -71669, 160069, -118812, -246385, -30359, -49036, 10543, -165552, 186714, -213039, -179276, 3165, 133762, -22024, 52233, -99569, 173307, 54894, 209259, 59249, -9930, 26825, -230263, -221224, -10939, -7449, -258187, -149100, 72691, 187685, -129324, 40537, 185723, 24973, -270369, 53295, 21600, -201565, -120800, -94613, -76675, -47594, 111061, -157902, -114604, 74611 },
  { 111402, -158065, 117029, 42108, -2095, -61285, -146591, -237744, 100530, -24327, 56485, 27014, -27200, -59688, -319057, 121425, -302839, 46283, 84468, 102794, 24762, -192476, 291779, 38504, -150682, 62233, -266248, -186634, 5034, 270407, 46864, 176919, 24134, -117150, 167726, 221594, 204665, 185551, -75246, -16009, 122238, -70485, 218189, 24037, 105037, -100505, 121971, 170620, -173400, 232759, 149975, 67867, -94472, -183935, 134594, 176038, 225551, 296039, -82482, -49539, -91523, 49273, -42833, 72529, -22237, -225414, -218700, -56116, -183291, -29988, 238871, -26128, -161715, -118920, -57634, -135581, -133632, 28854, 8224, -165834, 16180, -162659, 29191, 101949, 4445, -196154, 23528, -75977, -113564, -78654, 148140, 74687, 178091, 31365, 70922, -85887, -102399, 55860, 126472, -376678, 155300, -123541, 59081, -183407, -106091, -137443, -214069, -127986, 105892, -37535, -18538, -43859, 192692, 198788, 210310, 5710, 236975, -110567, 47869, -231816, 130820, -28593, 41012, 114259, -35835, -10116, 23449, 22666 },
  { -111119, 60270, -158427, 165102, -44603, -64267, -72465, 144250, 84044, -32862, -67223, 27103, 166604, 5556, 76794, -5246, 20945, 17234, 39738, -245262, 149912, 104247, 24106, -54142, 60724, 85926, 8652, 54161, 63789, -37839, 39442, 84457, -126904, 221539, 245850, -116518, -150439, 186855, 183213, 607, 189526, -29220, -96309, 132332, 11099, -4962, -162129, -91124, 115399, -232854, 260101, -146657, 82070, 60517, -102508, 41095, 164557, -88806, 34679, 101230, -129659, 78442, -86860, 247346, -15117, -42127, -59038, 84806, -343222, 59050, 48203, 98174, 93295, -65645, 315067, 97404, 53783, 150301, -160972, 1188, 18796, -229929, -28430, 261720, 76643, 119491, -47536, 159617, -72613, 152463, 253547, -67821, 25508, -145060, -26930, -23714, 38123, -25168, -158917, -74564, 170034, 18981, -4660, -106164, -110881, 60696, -165320, -36775, -11219, 136075, -26827, -58685, -54703, 17168, -45997, -4486, 42634, 111062, 107109, -103860, 80557, -129442, -64850, -80819, 151093, -60461, 86047, 196820 },
  { -31421, 179014, -132418, 107475, 21710, 27595, 322256, -242230, -99378, -239420, 4314, -35973, 92224, 121113, -192660, 22601, 142064, -3309, 4339, 189926, 179977, 135016, -882, 50261, -68363, 76360, 65141, 94894, 278817, 61798, 51832, -107290, -70504, -40694, 229998, 236166, 69611, 102155, 178368, 2993, -93055, 132678, 60714, -2873, -120675, 23143, -66865, 213139, 78534, 129464, 127668, 37412, 56741, 203911, 89026, -97049, 304741, 42324, -16093, 67282, 41331, -257430, -94069, -144208, 64766, -99252, -87675, 136191, -40909, -7278, -16162, -135853, 240420, 213399, 216883, 102182, -195477, -352801, -121574, 214222, 20071, -130566, 127916, -326206, 158737, 337850, 214052, 193436, -129888, -71561, -6037, 122212, -60743, 53174, 77410, -62940, -292619, -74701, -7791, 158316, 1986, 77220, 101845, -25249, 103924, -68994, 74874, 66946, -141424, 49563, 36992, 90945, -334870, -114529, -221876, -176556, -28039, -47371, 65804, 160612, -136346, 91501, 121424, -39364, 117843, 182919, -33605, 79259 },
  { -31829, 82686, 102119, -79239, 157137, -91678, -165798, 41558, 284440, -65800, 98442, 18501, -173839, 4362, 75220, -73195, -43709, 228786, 1307, 126832, 174573, -37998, 178099, 58040, 123488, -122315, -175695, -99915, -13783, 38372, 111999, -85422, -105684, -52363, -6985, -150992, 198158, -187438, 212502, -158193, -84257, -193955, 25699, 151714, 265894, -256517, -268893, 33207, 65360, 23036, 106692, 120914, 46699, -19248, -5583, 92577, -31260, 53369, 44841, 431155, -90716, 21946, 75158, 214205, 149161, 30193, -132863, 66551, -88512, -81243, 2730, -35947, 235184, 80998, 13811, -161752, -3834, 331, 75136, -50845, -128135, -140822, -35053, -82206, 11823, 109000, 44528, 213080, -151078, -98349, 10803, 59128, -54145, 70484, 44924, 31535, -133809, -118612, -118970, 127589, 64753, 125847, -47605, 216480, 24921, 80308, 7585, -89927, 150855, 185576, 126728, -84214, 105638, -152066, 31192, -235782, -253367, -19168, -39938, 56728, 37228, 13741, -27552, -243645, -42779, -169651, 206214, 95322 },
  { 417616, -328239, -292948, 13747, -84728, 248601, 125011, 127432, 288837, 318981, 11334, 189691, 127684, 114828, 172430, 163076, -80375, 183883, -316344, 525909, 280705, -132307, -118898, -118772, 109994, 64397, 78331, -231017, -422713, 72653, -25482, 16927, -32410, -63412, -83585, 133862, -163163, -181254, 17220, 25816, 66758, -29109, -77174, -41485, -291799, 40127, 199383, -137748, 86, 111016, 21325, 25021, -92542, -266477, 6476, -109449, -39235, -220983, -12067, 164493, 13127, 112747, 147501, -275221, 53385, 41968, 210992, -169491, 258293, 223906, -12284, -145687, -139289, -40939, -39939, 128134, -156385, 200102, 4124, 104471, 75901, 55831, 98629, -147409, 86057, -20520, 116096, -111686, 52729, 65498, -88645, 9018, 27861, -129358, 280779, -95875, 92907, 203671, 81619, -26945, 172829, 127971, -128556, 3529, -77746, 82718, 83101, -147527, 78567, 259917, 137323, 128975, -128026, 57137, 117709, 6528, 235170, -37813, 37472, 105505, -122419, -116436, -85459, -126832, -10507, 43609, 235089, 94259 },
  { -90886, 13530, 227139, -33238, -251086, -88237, 15794, 51431, 127522, -98383, 14323, -195732, -137205, 46804, 19864, -134484, -112754, 168788, -96551, 282212, 238222, -16453, -92091, 40728, 66025, -107801, 106101, -83808, -169739, 77248, 17406, -65208, 114982, -137083, 63534, 54157, -102489, -19150, -257687, -276, -211791, -26782, 40729, 263984, 106193, 61271, 20833, 56379, 214106, -116234, -7076, -44748, 70526, -132831, -57558, 1181, 63990, 22637, -554, -130182, -158176, -18547, 121538, -165828, 129401, 3068, -132536, 288637, 14081, -190460, -79402, 9650, 83981, -92954, 42196, 153739, 205446, 125232, 137527, -24506, -59931, -110464, -77586, -26957, -201004, -36810, 17338, -147026, 7078, 140761, -82699, -125501, -243100, -50522, 116822, 198353, -279046, -384211, -160160, -190906, -27188, -24537, -11118, 81646, 12794, -4784, -57031, -51102, 95300, 185055, -24942, -140094, 71781, 100156, 108854, 39562, -70333, 39900, 252439, -163913, -150189, 12904, -97481, 11328, 64746, -71041, -212553, -132802 },
  { -84587, -83171, -178084, 29060, 33229, 33244, 21865, 192009, -13455, -144045, 145980, 81556, -65179, -96285, -180992, 57535, -180793, 119628, -9825, -90425, -6044, -245723, -58294, -21611, -250775, -184630, -4067, -36116, 61978, -206572, 61173, -115510, -203212, 25351, -90446, 60013, -53267, -295622, -18848, 26235, -168566, 199985, 32025, -130900, 83646, 42555, 40667, -50447, -110041, -166473, -33318, 43353, -25619, 43679, 84504, 92702, 49784, 45762, 96094, -77234, -119941, 102400, 176781, 98772, -11753, -62843, -131002, 71918, -234907, 157533, 24242, -110477, 16566, -125005, 42635, -130974, 249556, 274952, 144271, -93075, -45260, 3978, -200024, -105850, -17582, -119306, -231753, -132658, -19696, 95996, -212829, -96200, 49167, -78249, -67376, -364688, 67081, 13468, -83330, -48975, -140917, 60238, -373042, -168978, -169456, -205987, 90256, -301595, 14575, 95668, 151926, -33608, 10100, -82674, 119137, -66510, 52448, 313340, 26659, 116475, 52888, 76864, 243703, 401762, -110539, -131106, 44076, -234669 },
  { -58117, 208878, 34632, 82768, -105901, -49002, 347693, 57690, -55727, 19110, -133443, -4661, 100110, -243877, 22525, -99443, -56221, 81361, 109100, -49377, 114270, 28807, 177175, 102673, -38598, 146194, -192816, -34668, -213027, -4725, -69555, -165168, 185513, -25238, -218501, -83186, -367733, 197204, 84419, -136520, 20790, -98067, 55853, 103926, -124771, -17487, 20734, 137715, -64001, -43146, 94571, -43675, -17499, 116517, 223472, 211624, -118349, 34744, 770, -293045, 13564, 162983, -110011, -124099, 181626, -206981, 142032, 16269, -79227, -47399, -38963, 98221, 255721, -97639, -75210, 33382, -265808, -131435, -47465, -156463, -6846, -4102, -5532, -124819, 460270, -109579, 57490, 5840, -94002, 53582, -112745, 87866, 145842, 39812, -76310, 142973, -182732, -113649, 466208, 34591, 203304, 100681, -172002, 57887, 220560, -54084, -216602, 55060, -26124, 15160, -149600, 110177, 138516, 78311, 37626, 76398, 350591, 31232, 153115, 11260, -55258, 5178, 72306, 3676, 239277, -52762, 147951, -283856 },
  { -30547, -18092, 243443, -77180, -203179, 182154, 14787, -11879, -145053, -89447, 191432, -182392, 76402, -183214, -200486, -90442, 15396, -68417, 139880, -162874, -172865, 210908, 181161, 98811, -101930, -58057, 103977, 70293, 55326, 113765, 251696, 172681, -93477, 75086, 172085, 22592, 84635, 116072, 103064, 136843, 43936, 99205, -238836, 104854, -93826, -46758, 113981, 156459, 30880, -56551, 18748, -30582, 235800, 106777, 33035, -72781, 85849, 204872, -343382, -80721, 5515, 255758, -237697, 120099, 110976, -183314, 163941, 124320, 110011, -92492, 143924, -41525, -135884, 13113, 128464, -55288, 58134, -13571, -63478, 188264, -246212, -151587, 45565, -77347, -30038, 74389, -110208, -14504, -274271, -149978, -57541, 57862, -48155, -17569, -231140, -13118, -110383, 155121, 209259, -139523, -163551, -48114, 52962, -66569, -46534, 85467, -55345, 108616, 110570, 31377, -61962, -226988, 172654, -32363, -21818, 95184, -15552, -190899, -119116, 232698, -204452, 72483, -28544, 22453, -49182, 45069, -33725, -90815 },
  { 3516, -295391, 120459, -182833, -118338, 176506, 72476, -4879, 143589, -126986, 29454, 19254, -78851, -56641, 45672, 175531, 81754, 125008, 158586, 101500, -83666, 10995, 119500, -78813, 122978, -50211, 57320, -22045, -48135, -3010, 298885, 20652, -116901, 113124, -120257, 49952, -171211, -141874, 26841, -213770, 44622, 125917, -57580, -119347, -107055, -301484, 52732, -95143, -107571, -267629, 96205, -34758, -31497, -185028, -85166, -78682, -32958, -299546, 182802, -1748, 92808, -132554, -1201, 240756, 72047, -32549, -183055, -162789, 13010, 204119, 48981, -139563, -112538, 41763, -134628, -145420, -257795, -15197, 1873, -166537, -57515, -135096, -77226, -173213, 8743, -20084, 47017, -47296, -236910, -135067, -160189, 56980, -107629, -2485, 125582, -73096, 235716, -14817, -115813, -259811, -161261, -52452, -7613, 150055, -83594, -110215, 10698, 47304, -64780, 6753, -100435, 10117, 30948, -88421, 84428, 102582, 42879, 131768, 23180, 133207, 70350, -65437, -43953, -208778, 47985, 40762, -133306, 137618 },
  { 18766, -85256, -23397, -308307, -69074, 26736, 99520, 38278, -228279, 54609, 266590, 91254, -59562, 20474, 115864, -38897, 12047, 76868, 96884, 243515, -145289, -106941, 6615, 43021, 94542, 59708, -87659, 2247, -18712, 160362, -58543, -3233, -128888, 114232, 90980, -43616, -149118, -145079, -165212, -105500, -81653, 82492, 226418, 134229, 223870, 46146, 89427, -64747, -308885, 217626, -274215, -205891, -99052, 403227, -33726, 94064, -142766, -114848, 62040, -59341, -254264, 123768, -96995, -57524, -80867, 158943, -231238, 23566, 98953, 4021, -75934, 219676, -53346, 48244, 70293, -33793, 16146, -87883, -64582, 20242, -91462, -219884, -248337, -25306, -4604, 34746, 12427, 142922, 90374, 144080, -38085, 13587, 111499, 41482, 21232, 54047, 24234, 53167, -9330, 87768, -105542, 62217, 72527, 105295, 17901, 52451, 126826, 123282, -233055, -35445, -86396, -44210, -50157, 59518, 3580, -162801, 296007, -31121, -161496, 91995, 123341, -38297, 4979, 47639, -147060, -76397, 16566, -153687 },
  { -97485, -77734, 30290, 104575, -213241, -124213, 203951, -124548, 32148, -15574, -135234, -60482, -122624, -60467, 36062, 55622, 53699, -92309, 2864, -136281, 130104, 127849, -8707, -25815, 18319, 55667, 38532, -141344, -13306, 81439, -57608, -95069, 14213, -7881, 19092, -41419, 133913, 79570, -71581, -102237, -4390, -76237, -8423, 13698, -58357, 221915, -26723, -33782, -37454, 124163, 47316, -155061, 12222, 96165, -24477, -166154, -180786, -70581, 70796, 61410, -49375, -6519, 148335, 30306, 16493, -221302, -51617, -55670, 60265, -223260, 2407, -193405, 230731, -180229, 473, -214476, -43836, 68170, -90258, -65234, 33712, -73130, 68875, -60511, -88217, -67939, 203923, -147842, 112391, 99571, -74723, -246170, -87319, -55208, -26843, 89312, -112990, 145502, -14596, -13883, -306260, 30599, 70525, -231878, 134577, -164041, -233559, 159057, 58318, 153688, -95692, -44361, 256249, -10885, 12931, 37875, 213786, -50395, -21636, 57658, 188713, 149436, -96627, -18455, -106892, -56087, 61656, -35184 },
  { -117794, -40420, -127412, -93010, 195129, 95446, 1473, 5652, 819, 92809, -162170, 36192, -106940, 41491, 38461, 58965, -153682, 5792, -41685, 30727, 82809, -172202, 659, -62446, 3267, -107418, 1537, 127858, -63116, -25882, 128995, -63541, 2663, -10115, -12449, 81599, 64874, 166660, 65565, -122325, -232605, 81542, -19193, -4004, 3981, -132385, 71002, 68698, 126709, 34348, 142011, -39097, 118442, -71467, -114959, -9883, 58889, 117783, 109981, -11711, -188680, 71880, 153824, -68635, 212254, 193332, -110631, -14180, -76210, 243333, -264054, -42025, 28336, -179283, 38696, 58778, -35442, -50529, 187995, -131151, 6578, 940, -41308, -105624, 54333, 1880, -40033, -37767, -47865, -30956, 30440, 91802, 119710, 303354, -131432, 154200, -31913, -65117, 72698, 241080, 201647, 34151, -103177, 15104, 202163, -264201, -24146, -80272, -30597, 266807, -163897, 96346, -126046, -164488, 61240, -123489, -179272, -178903, 125547, 139833, -172457, 109304, -62968, -9030, -29046, -148008, 177082, 46184 },
  { 237947, -14292, 283824, -77169, -94395, -30723, -109099, -76088, 230912, 129457, -61186, -162210, -9305, -63252, 83030, 94585, 107334, -3128, 200968, -16048, 156150, 110928, 124213, 249542, 179732, -87397, -177083, 121549, -83901, 10106, 12827, -107708, 62663, -197047, 148619, 58611, 144525, 230262, -65140, -156653, -50693, 15358, -30231, 171287, 30733, -120160, 270283, -311632, -13889, -48148, 44984, 90207, 167468, 41862, -61877, -246308, -118000, 8325, 41521, 11130, -25676, -135600, -105989, 175331, 32282, 60479, -150472, 144951, 109303, -292578, -12191, -90298, 82450, -102567, 190840, 201700, -90458, 22196, -26255, 91568, -134669, -81023, 177996, -38364, 25798, -26072, -54181, -157048, -116407, -104725, -176463, 705, 161219, -6406, 31090, 44510, -43305, 144345, 64652, 74928, -161924, -95409, -22309, 141791, 113064, -65598, 74192, -148797, 153290, -139218, 192879, 293044, 101120, 38597, 62937, 108277, 42479, 55058, 66879, 398429, -32818, -71697, 186866, -141205, 214444, -200264, 47337, 244865 },
  { 135323, 312509, 29007, -84410, 196384, 44777, 68117, 71404, 19273, -113225, 86098, 345350, -289455, -70943, 22817, -17824, 147458, -112620, -2623, 186743, 67636, -114119, -359869, -209981, 62868, -131248, 116820, 12833, -15833, 60104, -100525, -89656, 101324, -72158, -59642, 40695, 23883, 147616, 3054, -74425, 82606, 81627, -189895, 25841, 199591, 7247, 228266, 175630, 222062, 4007, 291347, -102673, 27381, 107932, 234961, 239332, -110038, 233820, -31721, 261362, 68766, 53248, -147871, 89696, 10355, -39325, -251712, 120470, -116303, 126205, -122566, 33490, 186707, -56303, -132266, -14658, -117077, 282098, 11856, -114999, 278137, -21564, 56333, -373581, -6341, 53647, 339519, 148519, 50473, 11828, -30314, -148431, -73414, 172980, 237282, -179555, 176341, 183711, 44143, 63552, 141723, 178836, 62671, -135139, 135681, -187633, 19939, 81066, -75716, 164477, 80467, 149189, 172159, -145192, 74500, -33730, -4863, 131263, 177842, -124688, -85865, -5036, 50674, 41036, 36705, 18670, 122609, -122049 },
  { 49605, -17395, 173928, -10887, -186829, 77202, -906, -178702, -76774, -20900, -292245, -8867, 39965, 271850, -70735, -313563, -193857, -36350, 124963, -149480, 72985, 96080, 36046, -81219, -35037, -10275, 223453, 126741, 9787, 325858, 13879, -28737, -22359, 30033, 289973, 145592, -157951, 211454, -224511, -104874, -19244, 113414, -94079, -53168, 25639, 63964, 96197, -157898, -26948, 6572, -106489, -16073, 246037, -112299, -13625, -51691, -60060, -40190, 54784, 251850, -245109, 52269, -51485, -92347, -250062, -102439, 41417, -58802, -218457, -133356, -37500, 317694, -51383, 217576, -27384, -239849, 169738, 80546, 49948, 267122, -35170, -286125, 2349, 315567, 207702, -64824, -12507, 167316, 18341, -108766, 61804, 164704, 47655, 40891, 143140, -44408, 88846, 140101, 22616, -84019, 154408, -54531, -155902, 251946, -163428, -5277, 230440, 218554, 108551, -32590, 73048, 39809, -84985, 103709, 112398, -87947, -117644, -43014, -63431, -38, -192695, -1931, -73893, 92049, -300068, -229388, 78234, 6153 },
  { -5694, 25844, -172214, -134043, 26300, -143391, -34556, 294665, 64160, 159892, 31667, 252375, 86184, 9477, -31456, 85167, 103866, 214592, 236473, 126587, -102640, 39797, 254496, -16525, 174327, -114076, -211472, 125978, -23485, 89331, 119395, 252146, 127400, 997, -222261, -119500, 17267, 232644, -83391, 63218, -106530, -333415, 55439, -51685, 120449, 36786, -23819, 126113, -55607, -146914, -141895, -160133, 24745, 36303, 34202, 170295, -132017, 184727, 118984, -173673, -116486, 216329, -44380, -222793, 44294, -81872, 103456, 92544, -145498, -110912, 19037, -87070, -273164, -52736, -29207, 11647, -74868, -91551, -73620, 6385, -100590, 56353, -51867, -82162, 31800, -59673, 205791, -134212, -186784, 181930, 136768, 139129, 395561, -96838, -62083, 109145, -181555, -76619, 218318, -217187, 51459, -38703, 106546, -20252, -79429, -58733, -236171, 119071, 28061, -5320, 48652, 76238, 235240, -156845, 101237, 62271, -94988, -57515, -16602, 103446, -83215, 134289, 6944, -12692, -33169, -93265, -23041, 122120 },
  { -54990, -14053, 29291, -42583, -120426, 55080, -50747, 13854, -160072, -43983, -14118, 34825, 99646, 10009, -135479, -63891, 28314, 60596, -133702, 103304, -70715, -77389, -108534, 106969, -83201, 158557, 47327, 166949, -70724, -162428, -104096, -125017, -153261, 56173, 99546, -148707, -33594, -20546, -93996, -157628, -39922, -68495, 70375, 59532, -56809, 119068, 108597, -146231, 44251, -193132, 92369, 191994, -140602, 91066, -83193, -137345, 14205, -18302, 18978, 92694, 12556, -11212, 221224, 43588, -77523, -62025, -146555, 72085, 170259, 126745, -109811, -50800, -172713, -99579, 20688, -58719, -134551, 135777, 109974, 18381, 159399, -56585, 67588, -27350, 174419, 72173, -213931, 57685, -37870, 53147, -149449, -102889, -249935, 147317, 165891, -84999, 42477, -123438, 38552, 90778, 402632, -103020, 6319, -126907, -21933, 46394, -11286, 129788, 7255, -213309, -3919, -36407, -86247, 24796, 67686, 114787, -45750, -63346, 218137, 177031, 122028, 82741, -217979, 16149, -118666, 39163, -53350, 46778 },
  { 144512, 264674, -140480, -14290, 298773, 69292, -106142, 87774, -12132, -125644, 21373, 177716, 19326, -118923, -118655, -15864, -9738, -237146, 21706, -129321, -217010, -22924, 61356, 42408, -15540, -11422, 169142, 266678, -50303, 156033, 63536, 233867, 185573, -115983, -85356, -287705, -118081, 46754, 165677, -61901, 113314, 150049, 561, -146280, 169441, 89894, -169108, 141600, 58843, -55169, 6156, -70343, -44181, -97468, 79042, 25767, -134007, -133229, 67091, -25582, -4923, 113128, 95703, 244351, 20651, 69042, -186124, -14282, -14360, 13786, 108926, 120942, -47871, -94351, -45820, 52053, -90417, -60445, 188219, -35374, -32210, -4812, 84674, -293978, -75334, 21798, 22436, 76507, 130278, -93690, 99633, -162935, -266782, -66096, 49328, 25521, -5819, -17659, -102328, 115821, -315228, -136578, -8141, -178739, -108356, 30230, -108338, 239789, -142320, 72862, 192766, -264427, -164995, 72637, 19056, 196256, -267415, -255488, -82897, -59322, -194056, -14310, -17926, 5760, 41362, -169241, 199977, -298729 },
  { -44647, -291229, 245584, -171499, -73685, -126236, -80514, 54179, 163869, 30707, 40941, 31683, 19045, 22414, 144061, 102111, 329060, 8591, -28865, -12055, -14116, 189339, 56178, 296908, 36718, 90791, -213208, 42818, 137942, -236392, -12953, 64974, 118331, -133738, -68267, 201697, -260940, 95471, 89950, 38148, -45935, -133115, 10977, 47104, 97628, 61927, -68312, -25062, -20829, -140507, 67555, 65081, 109937, 108274, -237465, 209722, 64404, -106921, -153216, -88593, 43603, 76844, -115210, 40663, 188555, 165407, -67099, 106929, 51587, 333838, 38687, 119638, -122503, -149527, -72814, 22656, 8166, 336210, 41488, 19283, 115739, 98900, -41484, 153982, -111746, -104340, 70109, 12928, 170677, -77692, -169254, 47341, 176413, 135069, -52987, -113573, -27618, 105249, 108223, -72790, -418252, -69741, 136338, 122243, -50103, 86555, 171747, 144274, 149524, -91802, -15782, -82246, 44756, 168445, -69489, 244471, 190894, -949, -45808, 305133, -15332, 140358, -25204, 141463, 195388, 75246, -171605, 75459 },
  { -93335, 326093, 10319, 49712, -11733, -162857, -274971, 125946, -128228, -134400, 139664, 64019, -539, -51078, 93708, 109094, -219539, 105723, 158951, -162110, 39650, 1997, 200842, 51515, -85543, 102780, -91243, 119168, 44869, -13577, 198853, -45365, -97634, 177843, -27223, -21692, -2708, 146810, -11719, -199128, 179683, 101115, -101073, 277360, 184306, 133906, 2585, 211500, -134322, -15002, -180308, -32275, 20509, 216588, -108912, 327177, 149182, -68961, -18260, -174532, 102964, 107078, 63398, -79698, 8612, 25060, -145313, 231791, 58738, -59485, 89472, -88558, 42306, -141270, -909, 13230, -80328, -108693, -10105, -88370, -18133, -953, -79782, 105607, 277360, -180483, -324985, -100511, -16070, 107203, -39110, 20856, 101113, 166576, -162905, 12928, 345314, -21946, -177529, 118925, 4887, -134909, 15368, 156341, -255560, -102469, 99749, 1862, -105818, 13142, 481, -40730, 115278, 267903, 74897, 66840, 228752, 130763, 51326, 144706, -154870, -317947, 195431, -212349, 79904, -47788, -43656, -131577 },
  { -242555, 88134, -37491, -166096, 95974, 125097, -61473, -142859, 18048, -91573, 53936, 29509, -208785, 19497, 291097, -46264, 91272, -8438, 10647, -35716, -13217, 171313, -28297, 120565, -95534, -10082, -82005, -64944, -253209, 28071, 130304, -219674, 37426, 69439, 70040, -106625, -57881, 57225, 50462, -74141, -299935, 159349, 59612, -141642, -171964, 51428, -43553, 52868, -134809, 50835, 287100, 152312, -118254, -85884, 153594, -32703, 169220, 51590, 90601, -198573, 74530, -97365, -49935, -74180, -49673, -7354, -18212, -175624, 149398, -34974, -71669, -105330, -46771, 186923, -39386, -98824, 71530, -43404, 145771, -116591, 201195, 112642, 10809, 59713, -177465, 36378, 78466, -201286, -271761, 94879, -138389, -8289, -45337, 234257, 194862, -148399, -116432, -158160, -134458, 73150, 210667, 37431, 90548, -132882, -26338, 130944, 191586, -349036, 39747, 22646, 42005, 164193, 81819, -68217, -22183, -130979, -234289, -95047, 151911, -105671, -41826, 15323, -163471, 96670, -150896, -127017, 60695, 131110 },
  { -37536, -101683, 41185, 121417, 6140, -40546, 77944, -158614, -13145, 51844, 34737, 147860, -166965, 180647, -6791, -91383, -206469, -30429, -44631, -203685, 86571, 213296, -81482, -99459, -103767, 97409, -96702, -218925, 11840, 252704, 180468, -71991, -66256, 23719, 80157, -74395, 309390, -335607, -63021, 107122, -10666, -114199, -70221, -259043, 11991, 143589, 298, 86648, 37794, 98098, -88155, 155125, 36313, -262627, 66110, 166758, 73301, 42573, -116454, 220321, -42310, -32783, 35576, 57570, -2854, 103187, -86764, 72663, -36559, -53878, 107199, 122061, 155808, -59624, -152508, -12550, 75795, -149128, 98338, -67689, -177804, -16971, 152396, 79138, -116092, 60484, 166657, 74454, 135509, 66404, -143754, 138434, -115023, 36967, -164124, 136501, -171650, 15023, -272, 14225, 85077, -174005, -120630, -130570, 47717, 296776, 45953, 116630, 22497, 94962, 183346, -111090, 226066, 26626, 151251, -171854, 109856, 138021, -95096, 14893, -210181, -117829, 38865, -95964, 37127, 34361, -42834, -151972 },
  { -153142, -70069, -29235, 41900, 57842, 85403, -23602, -208632, 60422, 30954, 110479, 30564, -77321, -121509, -121134, -205763, -172688, -10725, 16077, 3315, 34562, -17748, 162149, -148858, 85356, 32006, 76594, -18588, 8830, 94823, 93329, -74131, 127906, -71736, 37732, -174401, 34909, 224491, 17356, -57861, 26831, -249961, -22831, -78468, 5251, 97113, -121977, -35546, 76884, -283023, -298423, 153707, -12654, 174025, -164147, 87393, 38192, 143897, 79144, -343153, -94915, 210240, 53593, 21160, -221612, -48344, 95961, 49459, -220065, -173605, 8228, -120011, 148304, -246351, -44390, -206881, -5121, 23925, 146003, 207586, -42965, -50195, -86421, 27192, -118060, -28084, -51481, -146056, -1723, 105001, 218758, 68859, 279947, -26825, 23241, 136578, -120180, -59075, 172816, 35325, -232421, 135576, 44938, -96216, -19886, -142781, -132278, 125633, -12774, -165923, 229117, 7272, 78041, 21831, -88824, -9346, 50016, 34635, -145503, 271993, -112913, -93051, 146637, -88736, 97031, -268318, -49916, -104492 },
  { 24113, -9430, -2590, -80326, 24757, -81830, 7851, -198888, 164946, 63231, 15407, 106415, -150207, 55683, -239979, 300826, -174580, -183858, -359509, -144872, 168415, 185124, 144716, 127625, -173282, 2280, 49239, -34972, 203863, -149971, 33147, 138443, -44179, 238824, -128333, 196334, 22607, -49357, 165140, 15803, 220338, -95076, 58632, -106821, 175277, 65012, 148861, 85934, 95003, 96191, -45492, 99996, 211438, 95532, 89025, -59035, 219115, 245902, -119632, 113931, 34820, -207727, 249035, 174482, -80741, -89232, 150555, -18622, 7870, 146459, -102549, 173827, -174954, -70600, 99701, -71345, 76769, -9455, 8183, 187636, -70881, 57441, 112772, 32760, 131335, -211822, -161239, 105815, -203170, 28034, 69270, 59189, -297091, 175434, -91642, 66098, 22148, 201168, 49466, 36145, 194870, 105655, -52689, 185756, 233540, -49505, -180781, -95476, -178674, -114654, 51354, 87649, -98974, 90068, 212609, -93139, -14315, -204075, -116965, 169360, -49568, 7395, 16995, -70274, 298642, -79276, 8310, -245597 },
  { 4324, 168599, -225283, 281452, -50201, 93565, 10043, 89965, 173650, -156914, -161326, -58051, -348780, 160349, -28495, 18356, 29115, -26714, 69227, -32508, 60521, -306091, 15906, 42139, 184841, -102561, -11859, -115625, -27868, -24908, 20598, -155570, 31092, -101218, -11901, 190353, -162974, -125683, -19658, 192923, 57020, 24684, 22584, -85043, -74928, 22371, 189643, -223780, -181055, 185865, 98201, -61656, 198702, -81752, -7793, 24213, 126811, -20855, -134541, 101294, -66333, 62384, -62005, -26626, -107191, 127829, -91160, 225330, 4855, 220784, 33806, -219825, 84201, -136917, -97899, 64540, -270443, 15333, -88550, 191117, -129704, 98297, 104022, -133711, 107125, 250130, 23391, -84461, 236881, -37515, 19241, 97607, 111164, -108088, -179664, 9414, 2865, 14134, 25528, -52673, -200511, 102085, -216402, -64272, -38628, 107501, 3464, 135839, 5328, 291821, -111351, 25805, -68710, -52732, -175220, 76848, 197344, 26737, 150297, 60117, -114148, 7338, 17454, -32382, -131433, 30951, -144392, 138304 },
  { -201097, 316366, 99139, 24317, 239647, 17219, -63459, 168941, 50652, -29441, 176939, 9165, -258142, 18930, 58123, -161331, 94885, -39686, 165946, 120175, 126089, -106069, -121708, -15578, -22641, -12122, -187503, -69712, 122899, 304428, 1941, -84761, -54554, 23046, -73001, -9785, -41538, -35094, 143264, 4671, -98148, 293823, -156695, -258155, -90071, -18372, -141654, 123306, 87600, -85641, -113494, -348287, 176336, -244527, 125651, 69823, 73816, 288602, 165604, 39813, 91530, -153913, 46429, 44850, 19181, 21819, -192171, 286873, 15070, -21943, -242729, 51233, -65741, 150744, 168794, 98215, -199703, 22421, -115399, 249837, 243131, 120031, 61019, 87955, 114407, 169904, 66961, 2446, -138124, -90423, 57523, 174101, -48403, 221593, -87134, 338853, 81598, 54051, 21450, -8570, -79024, -41292, -48228, 100434, -112102, -167813, -23934, 88259, 147927, -39142, -92173, -248846, 92921, -53719, -125875, -57699, -20827, -76504, 130405, -81609, -146977, 9243, 127773, -82790, -136879, -296288, -295671, 68242 },
  { 126111, 43841, 40692, 255702, -66424, -204473, -94000, -104696, -81420, -94441, 106213, 185791, -143526, 75847, 93176, 13753, 276669, 78014, 77055, -47897, 151794, 134800, 36179, -9534, 27477, -180999, 82737, -53152, -161801, -2118, 30758, 10635, 97680, 119799, 25658, 24481, 36958, 29904, -41574, 5624, -51462, 150666, -30733, 72115, -12083, -289287, -194424, 108118, -64854, 163454, 25735, -109111, 173523, 25983, -23674, -78502, 99598, 246700, 56259, 138297, 25622, -91164, -15090, 104825, 44762, -52853, 29363, -54618, 144368, -22485, -155285, -140212, -31840, -145645, -131865, -86252, 88655, -8426, -84129, -66777, -12400, 93722, 216555, 70469, 100387, 171409, 95801, -249759, -174795, -103053, 44240, -42770, -51482, -34231, 99142, -166777, -67914, -53315, -110871, 24206, -350916, 241091, -212512, -155277, -127962, -13476, -73969, -235831, -50398, 23534, -21489, -193239, 130804, 120811, -34801, -144375, 119637, 51956, -60343, 134300, -151110, -62909, -7049, -134740, 166709, 266773, -169108, 184681 },
  { 134350, 29499, -67613, -71476, 118566, -136129, 66645, 37056, 108254, -2896, -110326, -19723, -328349, 72583, 79430, 165602, 25844, -123773, -149286, 89642, -29720, 7494, -36630, 241414, -120369, 138715, 170087, -39897, -5308, 82911, 62403, -16941, -118475, -57516, -32568, -36008, 30373, -79318, -29101, 152536, 89296, -248943, -81764, 160465, 154420, 142443, 32142, -44460, 7195, 26464, 123106, 330462, -289739, -52007, 81100, 8221, 37180, -126950, -116854, -81816, 3419, -185588, -217828, -9987, 83473, 139758, 17171, -12063, 69724, -58167, 201837, -63221, -23298, 167625, 67238, -39012, -206957, 91651, -76523, -73267, -48375, 71411, 169269, -55193, -44105, 27734, 186531, 29000, -5310, -103967, 158469, 120137, -153788, -22774, 4945, 258150, 179347, 30013, 23543, 80791, -183396, -44248, 1640, -228178, -108929, -49110, 109357, -9528, -83781, -167968, -82766, 186220, -117274, 10089, -52460, 163879, -316972, 103235, -10528, 139951, 226519, -302793, -169511, -42466, 183946, 22843, 137626, -68241 },
  { 232366, 32090, 51591, -185513, 236057, 119215, -104576, 262361, -149624, 83523, -4061, -152266, -37804, 36345, 152204, 247058, -134519, 183398, 46689, 124205, 46609, 130668, -138281, -64898, 164323, -30298, 342136, 210151, -31717, 74897, -178639, 85906, 32760, -176292, 37981, 133760, -5333, -55164, -54451, -88473, -10981, -114458, -39937, -232438, -94018, 124566, -13350, 216321, 145586, 1714, -13615, -150993, 86169, -125917, 191447, -67728, 100838, -105388, 45646, -58130, 189246, 26078, -56889, -167791, -68636, 203880, 12831, 26278, -145220, 1972, -7328, -177532, 76072, -88385, -138292, -193086, -202319, -106762, 105397, -50075, 114411, -19929, -105659, 98558, 44799, -19961, 75425, 131992, -10793, 65843, 159297, 185486, -2039, -36911, -28322, -193796, 232867, -86979, -64526, -121717, -201031, 156564, -23810, -166262, -105077, 94166, 2136, -64528, 9424, 92408, -132040, 165635, -55584, -218697, -129377, -93560, -54478, 36031, -127734, -16660, -197514, 31270, -95765, -10056, 119046, -79264, -83813, -7787 },
  { -44456, 30179, 49508, -13383, 147940, 13222, 2075, 137447, 70145, 141208, 301342, 163619, -31902, -139354, 68197, -103120, 11585, 206412, -61552, -72240, 77477, 68624, 35577, 130709, 61028, -145120, 161952, -23290, -215142, -8750, 65734, 40711, 27963, -116784, -86912, -32618, 213463, -90614, 237606, -45098, -52971, 134547, 36011, 126419, -109137, 14557, 192334, 126016, -254847, 42165, 107820, -27920, 32636, 257534, 117058, -200646, 101085, -95453, 90129, -75404, 132690, -167367, -53448, -99805, 33236, 195442, 40929, -255867, -77307, -51271, 13670, 256502, 102572, 333237, 72581, 100506, -40918, 143334, -86409, 93330, 177743, -40374, -104829, -137126, -201414, -5491, 59776, -179008, -47459, 95455, 85893, -131300, 71623, -175167, 29340, -79944, -96113, 7252, -267305, 100466, 15578, -83097, 214775, -28366, -129770, 233979, -135379, -126446, 133164, 223678, -211286, 283817, -180264, 20465, 50698, 251555, 547, 202162, 263923, -71332, 41131, -129338, -68037, -165299, 79479, 81439, 58723, 59640 },
  { 332288, -44137, -53976, 127532, 122470, 471, 8743, -143359, -56820, -214032, 22745, 85138, -123115, -3109, 62236, -58727, 145061, 12827, 101902, -17645, 170272, 112793, -16715, 132939, -1725, 54873, 137420, 87400, 125376, 28112, -252946, 122909, -57372, 123939, -6958, -81729, 67544, -49126, 47365, -217311, 231035, 40567, -79549, 95801, -118961, -54921, -69082, -97755, 16743, 31038, 131456, 275025, -81259, -56244, -78851, -141211, 397694, 267558, 95069, -172101, -165654, 59494, 24173, -44179, -244075, -213655, -50706, 154453, 38605, -109424, -155647, 232227, -120595, -188506, -177197, 164641, 96889, 114038, 35199, -10866, -107238, 152266, -151515, -13680, 60403, 292987, -59487, -95969, 47729, 86426, -78885, 31580, -132929, 197899, -29001, 144875, -5169, -69786, -2719, 24518, 217387, -88473, -147615, -194702, -182251, -33427, -69623, -10972, -145211, 267738, -69105, -20101, 83333, 94521, 225472, -333557, 9583, -28692, 142730, -141466, 15425, 116075, 176320, 32867, -467, -130133, 118573, 95714 },
  { -6524, 114113, -250945, -110322, -220808, 141927, -91399, 19278, -47205, -2162, 8954, -89286, -201754, 44521, 285099, -111972, -72993, -6958, -99164, -179952, 8749, -133660, -79080, -122244, -230348, -119439, 58940, 126710, 50071, -6867, 60905, -35200, -98432, 152933, 208535, 68844, -157241, -132905, -27885, 190760, -68711, 68381, -39265, -322818, -65073, 90984, -190996, 27682, -42279, 77765, 95656, 66322, 107334, -101057, -43549, 283953, 81749, 63045, -97141, -123837, 75583, 264990, 6738, -201320, -114418, 89918, 181285, -107267, -84423, 86848, 162096, 46208, -67728, 59634, -176548, -136248, 127886, 116940, -351516, 7470, 49521, -193505, -89457, 44485, -70867, -28325, -14856, -73762, -25282, 220103, -104426, 100637, 167711, 56077, 3839, -50267, -102996, -46406, -259267, 208163, 72479, -12958, 6104, 21718, -242771, -3037, -116259, -78928, 136120, -206613, -107401, -48050, -119466, 100563, 24715, -68865, -5822, -130091, -72035, 43609, 159383, -42568, 57208, 83147, 140233, 78501, 46286, 75538 },
  { -138314, -214668, -151256, -117466, -116746, -31748, -30822, -72805, 138482, 145168, 29650, -180814, -222178, 90869, -38022, -102846, 56795, -156422, 59767, 74438, 209894, -97519, 138856, 25976, -4691, 137837, 68998, -57362, -135776, -355846, -1609, 168935, -144057, 218179, -182311, 10781, -3536, 58055, -154403, 93072, 205803, -209804, -175525, -198735, -61185, -152995, -4360, 107661, 4737, -13818, 227816, 70118, 219609, -69708, -86040, -30252, 36518, 18463, -34165, -36302, 101571, -167722, -17660, -181495, 317157, 67915, 275221, -146362, -113002, -76171, 124498, 206552, -174743, -47357, -74424, 41927, 73129, 211792, 59124, 25159, -209900, 70832, -117042, -82492, -48361, -267349, -26883, -24550, 232678, 64955, 324698, 20304, -254661, -182255, -10566, 59591, 170912, -228163, -47973, 262884, -49200, 107834, 55070, 31063, -110495, -137686, 70952, -81076, 136687, 118348, -86111, 41902, 67253, 63722, -56970, -55485, -285651, -134780, -119898, 85012, -77035, 109755, 48939, 108822, 142112, 73170, -48330, -82441 },
  { 69201, 104579, -166482, 61763, -230638, -74409, -316189, 94204, -120279, 158205, 132840, -58793, 291134, -218229, 162150, -44711, 187640, -31429, 332621, -2383, 43395, 12773, 34056, 181775, -309208, -78178, 163141, -262626, 154312, 105211, -76563, 40791, 245743, -66593, -41446, 273473, -172124, -247496, -142770, 242619, 168360, 170307, -177753, 114995, -96214, 127047, -9466, -12957, 144761, -93384, -84488, -18640, -178287, 135923, -13290, -45817, -23447, -63458, 154307, 110057, 9540, 36332, -58249, 237368, -258426, -159102, 135458, 35737, 41109, -303293, 70215, 87707, -25904, 87942, -50455, -210159, 55122, -61589, 43124, 28440, 71414, -37394, 20051, -58346, -46534, 7275, 18994, -85340, 128552, -4914, -59320, -88879, -7237, 334285, 359906, 179014, -28562, -64601, -108640, -55589, 42608, -179549, -25936, -183701, -10638, -108347, -26582, 107352, -87881, -107841, -75301, -188997, -302173, 15191, 51258, 119348, -12175, 65686, -91758, 23273, -59416, -42412, 156756, -128374, -143470, -78725, -69624, 166634 },
  { 171218, -120693, 144789, 111797, -170803, -150551, 157510, 189267, -131871, 43545, 21755, -38013, 105622, -117573, -98506, 87085, 180912, -22553, -86513, -154963, 328780, 40363, 214307, 123993, 6730, 107313, -1486, 79580, 71770, 240235, 133810, -241884, 101003, -4206, -191726, -239015, -67529, 121753, -72791, 107653, 116420, 52849, -153161, -30812, -29342, 75739, -37511, 90632, 139180, 47255, 187691, 215049, 252412, 367684, -70310, -52425, -136532, 12646, 72738, 4204, 141197, -90502, -29963, -60099, -107489, 96010, -41405, -239060, -51990, 36973, -115183, -125030, -279619, 139965, -114116, -118156, 25789, 86438, 20138, 378747, -53035, 126124, 195418, 2186, -211340, 239758, 242094, 142344, 198497, -125707, 222251, 68853, -49106, 79456, -91364, -115081, -42336, -305845, 47871, -116197, 52174, -197743, -70650, -24913, 100817, 19352, 81277, 25939, -45153, 200445, 37141, 43876, 139710, 164416, -74179, -24350, 175640, -86874, -88083, 14083, 54970, 2428, -100127, -14950, 23462, 11173, -64610, 85831 },
  { 43644, -234306, -177794, 101483, 7971, 71235, 378733, 44862, 206210, 136374, -151901, -108914, 161941, -215926, 56887, 205652, -119413, -141295, 3127, -93250, 271823, -24527, 35876, 298622, 284111, -178770, 76088, -36742, 11028, 178183, -154582, 314115, -80676, 104691, -43219, -28711, -45090, 150587, -154636, 63106, 56166, 88171, -27596, -230193, -12604, 100216, 130769, -152629, 47482, -135160, -105698, -169002, 188041, -121981, 50514, 3540, -38668, -95912, 199448, 29347, 77538, -395012, -17201, 40502, -66058, 193755, 54629, -265287, -127635, 87850, 33866, -84407, -128805, -29154, -15962, -202207, 165450, 77131, 102975, 94209, -299200, -42339, 137172, -125344, 269398, 84458, -112984, -91118, 272578, -57556, 90334, -26849, 813, -114982, -104141, -68647, 119101, -156658, -70922, 145581, 37503, 168496, 103712, 111934, 74661, -79885, 24693, -62255, -81065, 67659, -230940, -222142, -986, -171898, -162974, 29472, 142305, -57278, -5104, 156820, -87206, 70346, 177924, -23042, -32254, 146831, -143321, 73418 },
  { -221757, 39819, -311151, -15344, -19661, -160454, 31274, 89829, 264076, -19925, 9382, 162352, -119579, 1476, -88509, 16982, -57011, -264550, -76791, 28973, -79039, -43564, -386880, -130059, 266182, 113439, -7700, 14989, 161512, -52292, -16205, 92016, -350958, -129377, 58568, 248410, 204306, -27632, -41092, 122250, 91885, 248757, -42833, 119725, -67151, 131713, 59879, -79062, -61425, 171739, -9314, -15522, 46330, -106548, 84576, -27942, 181615, 271276, 89402, 35669, -49280, 137550, -41022, 19000, -30870, -99751, 6493, 54628, 235799, -149890, 68904, -31357, 16554, -129814, -28887, -191968, -58853, 47603, 289135, 194574, 314709, 121006, -93944, -98137, -153036, -144428, 328037, -143407, -39766, -3665, -74407, 125241, 26340, -79744, 106856, 130336, 213051, 101076, 378824, 145255, 212961, -179807, -193737, -30252, -73090, 91953, 229300, 132204, 155790, 76832, 39303, -63151, -90565, -115079, -118376, -115772, 188778, -8320, -113658, 162531, 109590, 116403, 944, 93315, -346671, 121196, -66565, -155236 },
  { 91686, 37287, -154382, -34187, 138533, 287745, 56171, 98007, 19753, -7769, -5529, 111998, -62872, -122151, 13717, 24539, -106143, 69097, -63399, -73106, 153204, 32639, -70201, -96485, -62546, 63036, 79947, -61970, -101111, 8167, -44632, 46895, 126604, 66742, -29112, -150981, -143414, -170656, 106933, 108196, 135096, -83559, -15094, -64718, 23470, -94122, -69260, 49355, 116901, 352152, -48433, 127362, 22297, -115795, 63431, -178112, 90954, -87710, -48889, -18194, -174085, 39427, -54427, 156472, 116802, -266354, 79075, -30399, 172397, -119782, 140285, -21752, 85164, 56240, 78663, 1651, -10612, 117255, -83921, -1833, -52506, -48082, 253711, 150039, 53535, 94239, -225809, 69975, 1452, -17883, -81114, 31862, 61591, 93786, -76669, -3410, -230785, -39139, 183511, -100016, -104656, -55741, -93479, 4626, -5061, -24229, -20828, -42594, -44718, -76256, 110078, -85072, 13383, -31637, 101916, -136264, 42423, -112262, 8261, -192365, 17492, -33749, 224242, 9295, -303813, 206080, 147019, -192754 },
  { 23478, -18550, -61505, 41521, -46968, 20993, -62506, -270163, -66639, -51078, 15647, -21918, 75340, -105556, 64720, -20399, 184170, 39310, -33802, 53472, 64630, -20836, -44713, -107419, 184830, 130195, -173958, -108566, 174447, -15708, 110006, 9797, 99624, -241111, 170745, -94648, -213080, 109770, -97317, 72484, 141419, -151480, 2022, -155839, 165977, -81962, -135900, 123597, 72108, -149113, 84440, 136206, -16692, 12158, -66130, 65344, -158515, -246116, -55868, 47493, 80130, 34596, 73025, 17544, -116477, 37899, -109583, -155349, -78235, 77628, 171166, 7095, -69879, -35931, 75946, -2867, 95017, 175976, 208210, 154887, 113286, -206569, 54227, 22687, -61077, -49229, -51141, 331306, -199757, 97472, 91774, -177805, 141487, -117306, -9017, -127892, 32637, -3234, 221880, 76943, -119376, 202167, -137881, 315747, -74805, -79813, -42013, 48412, 87947, -180686, -45495, 65904, 4580, 20672, -152355, -166264, -54258, -53483, -275671, 89138, 176364, -291761, 67892, 173187, -12795, -71881, -188048, 180214 },
  { -21477, 41386, 42541, -133728, -87769, -143046, 139895, 301444, 35618, -45359, 73222, 137430, 222590, 91149, 32433, 189637, 33629, -145535, 70963, -11605, -183593, -309971, 230201, -283054, -202987, 22558, 78881, -154795, 116154, -43227, 21644, -373111, -142003, 319750, -93291, 14311, -246072, -74919, -151158, -87768, 119061, -226051, -128058, 182822, -203946, 113790, -92941, 114071, 135022, -10154, 70523, -145081, -40534, 321495, 162558, 340321, 187700, 126284, 50921, 9179, -13911, 143878, -191834, -297924, -55851, -218783, -10023, 293600, 143745, -68597, 70362, 60620, -95254, 98153, -235736, 26899, -118660, 216339, -20947, -186131, 94396, 41836, -90555, -75683, -105031, -162766, 106474, 272009, -147540, -168665, -287926, 42588, 240631, 259266, -52096, -116627, 4357, 349042, 32308, -144725, -116396, -273467, 187231, -85802, -32856, -27073, 189391, -22384, 73551, 42681, -4556, -30624, 193595, 65295, 49571, -123744, 93209, 902, -42208, 104850, -239195, 210999, 18824, -25317, 58286, 43780, 177021, -109176 },
  { 131075, 161205, -89413, -8798, -262011, -33852, -241489, -109638, 147860, 165958, 181649, -8814, -86283, 73321, -127188, 241783, 40826, -264312, 185524, -43122, 113996, 162702, 126639, -163463, -85481, 106846, -194549, 86602, 186256, -114372, 13723, 61598, 60731, 54699, 3532, 10564, 25848, 272546, -77733, -143986, 160699, 81856, -156404, -228646, -217412, 91427, -218529, -200691, -38954, -197007, -7310, -139905, 292539, -225163, -85239, -314712, 279546, 161107, -28526, -18694, -181331, -119815, 18054, 145422, -216337, 115233, 222860, -27345, -94732, -221381, 291174, 212768, 102328, 58713, 7980, -91998, -16288, 248061, 78019, 106515, 123704, -30530, 134956, 12848, 291683, 165737, -231234, 148718, 40774, -286580, 47288, -49143, 86086, -76726, 122969, -182115, 115689, 99702, -11929, 89143, -141984, -193510, -14700, -119688, 95815, -64627, -236181, -206292, 307511, -103706, -20280, -41702, 109217, -252880, 315556, 37599, -376180, -69005, 17721, 155598, 78764, -6849, 110942, 54197, -127131, 121905, -205043, 30924 },
  { -144691, 77032, 31312, 12399, 33142, -41042, 64180, -149103, 7580, -117024, 203880, 279474, 136462, -47863, 6447, -36775, 23499, -74823, -55704, -4058, -17852, 220841, 158671, -84265, 15796, 151586, -27005, 89349, 137466, 86009, 66169, 62485, 104643, -47508, 110219, -95656, -263490, -5879, 168030, 225807, 76460, 91483, -389908, -25792, 171061, 146196, 220652, -72420, -115885, 87070, -7037, -42504, 31665, -15961, 83734, -162846, -235590, -146945, -240769, -97754, -93964, 118173, -137206, 17156, -111389, -78988, -80142, -165436, -27798, -44363, 164895, 150535, 229662, -184328, 182480, -11732, -295984, 61104, 153533, 241561, 72667, -106867, -159618, 83013, -102968, 143642, -61273, 79822, -41798, -12570, -93426, -81990, -230566, -18103, -127280, 201053, 25620, 30903, 119482, 6720, -267905, -128697, -76946, -240650, -8008, 124156, 79849, 143496, 14097, 147716, -130389, -67177, -368135, -56825, -91503, 78382, -1650, -142691, 38906, -117630, 13652, 69018, 206698, 119266, -26834, 74613, 147473, -23783 },
  { -110245, 19426, 236019, -327310, 87006, 86478, 101525, -11074, -19975, 15141, -34920, -100443, 38467, -125552, -49917, -318224, -24222, -63338, 32247, -85508, -78301, -19431, -214509, -20626, 42200, -194064, -58760, -88271, 58229, 17153, -189449, 127211, -1198, 38966, 76349, -112357, -7840, 154599, -133050, 50365, -58528, -63777, 207883, -107363, 109128, 35335, -62066, 36319, -166254, 28433, 23597, 17936, -137606, -42106, 8403, 59337, -126338, 57315, -196910, 5434, -32337, -25444, -62319, 32378, -72623, -22906, 263484, -3201, -44162, -169111, 70308, -101753, -210906, -107599, -18364, 17599, 119173, -28567, -40338, -89925, -79586, 64087, -87942, -170433, 2090, -1830, -33918, 139804, -27678, 152284, 45515, -79743, -108293, -31390, -29388, -159985, -121746, -81657, 79174, -58622, 85495, 34464, -68859, -128818, -106879, 30317, -128174, -204762, 55117, 57874, 292574, 22870, -55341, 7282, -272114, 113682, 96516, 249415, -42950, -4893, -192387, 109933, -140710, 171623, -73977, -151120, 154069, -52182 },
  { -73670, 142933, 238881, -93469, -232231, 20880, 48207, -82318, 138133, 14274, 46813, -35127, 19995, -68500, -13678, 188737, -53580, -187392, 46477, 278202, -100931, 209502, 187603, -131133, 18072, -67764, 145735, -129286, -88658, 225765, -108288, -299650, 29554, -60178, -155745, 128960, -7867, 149682, 94859, 55832, 63904, -290043, 24150, -94319, -172795, -26870, 60960, 247825, -90712, 99076, -68559, -299756, -4460, -44197, -35315, 139715, -25050, 264186, 77301, -26985, -242935, 6341, -114478, 29873, 25407, 27591, 279364, 56764, -46561, 102060, -138844, 199076, 302940, 44289, 88355, -276028, -3123, -199038, -195566, -87252, 60613, 114647, 140469, -59433, 196663, -34384, 152266, -93307, -103612, 91995, -50002, -139836, -52845, 71729, 105971, -38987, -119573, -172700, 116629, 32093, 8440, -13931, 227922, -11152, 119781, -138848, -84778, 10675, -72426, -166533, 28429, 11975, 40393, -78806, -56104, 23982, 75482, -49510, 11483, 40054, -195711, -4159, -154917, -61370, 147366, -219281, -31114, 28166 },
  { -131356, 201799, 244169, 84076, 82673, 90598, 102947, 98633, -29559, -18578, -86514, -28470, 20514, 86019, -42773, -10885, 69483, -81336, -152660, -135371, 265622, -161520, -289592, 76816, -99702, -87900, -147574, -54448, -99545, -2132, 133512, 60265, 23316, -22266, -21527, 28324, 100040, 1312, 16957, -6276, -119393, -65732, -121424, 144987, -125478, 210916, 5882, 77875, 33958, 318189, 124882, -110807, -71397, 145184, -110144, 44388, 98889, 20705, 196870, 40151, -150013, 66982, 25027, 222156, -18818, -358889, 58969, -39210, 128941, -62657, 163018, 42790, -13478, -64034, -78660, -156653, 98901, 45346, -54049, -128900, 71590, 53810, 20928, -312320, -133796, 29375, 26174, 53768, -110296, 111862, -61140, -206613, 106079, -76668, 82934, -222755, 42903, 158868, -5953, -125271, -197493, 352186, 89221, -28787, 105385, 27564, 18842, 4170, 110953, 125109, -191474, -140173, 47841, 285510, -19621, -102125, 44487, -89008, -46581, 71650, -208049, 114968, 72170, 111988, -263388, -1216, -66169, 75291 },
  { 66333, 6279, 90226, -2990, -6923, -3213, -319944, -190824, 142500, 29977, 49385, 5732, 5654, 139959, 127491, 11628, 119662, -190627, -47848, -1185, -266798, -45851, -364478, -3097, 20438, -7382, 63398, -65779, -49341, -260859, 54460, -53151, 125255, 113246, 177443, 177532, -127153, 113024, 18280, -4472, 222921, -98496, 158063, 163674, 33551, -159951, -121268, -50022, -171623, 221799, 10719, 46289, 31203, 110397, 205250, -251323, -94893, -218757, 179075, -122990, -67621, -270397, 32042, -56797, -169602, 13705, -98745, 84619, -268680, 18553, -29847, 145930, -88250, 133590, 22231, 106064, -26237, 106365, 42130, -176774, -32931, 12410, -355869, 167827, 127605, -95219, 61678, 118034, -119969, -129220, -291970, -149468, 150747, 189440, -15620, -86766, 193400, 115892, -68684, 178665, -18477, 202519, -142463, 191574, 33236, 178729, 186177, 35969, 39528, -200224, -37650, -16327, 262943, -113161, 18443, -66551, -88190, -172248, 83738, -103904, 115258, -73013, -8649, 67222, -134494, 9700, -137632, -49185 },
  { 121887, -95810, 148038, 125543, 30158, 131163, 165644, -147555, -13752, -41070, -400263, -2955, -62760, 5118, -313197, 195046, -143784, -52751, -154842, -194153, 17238, -18299, 256252, 170473, 17261, -47812, -120748, -19151, -64646, 106206, -232183, -109467, 222307, -55957, -61348, -50926, 20044, -162617, 68876, -117286, 191086, 28857, 135601, 43807, 116003, -141965, -1761, 64046, -76089, 88211, -144720, 58648, -230255, -133634, 102428, 180017, -52049, 9829, -42463, -61005, 120712, -199627, 104096, -69755, 90776, 105661, 88524, 6665, -23201, -128715, -124304, 68672, -35487, 137246, -129372, 6515, 6711, -6103, 174869, 186609, -70878, -69392, 27052, -30316, 161764, -303115, -7753, -96897, 55075, -259421, -83829, 82223, 165136, -148384, 338058, -27847, 167091, 102357, -52573, -32691, 27806, 389075, 36811, -129663, -118055, -22272, 10308, 113437, -111440, 71995, -211556, -35972, -309946, -25547, -17810, 30648, -82196, -3648, 21218, 11282, 181960, -208579, 69611, 227559, 197555, -43902, -75928, -188522 },
  { 196435, -105304, 62204, -77277, -178358, -161378, -98594, -206400, 27789, 307735, -142963, -219469, -138093, -129831, 16492, 84233, 85258, 14836, -26428, 116327, -109144, 99396, 177804, -47339, -40465, 54069, 122752, 13745, -34725, 120542, 16620, -19313, 20013, -28977, -259340, 23849, 110852, -15380, 108914, -48290, 88170, 77210, 98355, -89052, 217172, 120239, -106522, 111580, 93902, 94024, -82714, -57770, 6828, -158801, 286071, -34369, -28560, -246321, 44333, 79176, 233679, 139084, -37138, 102444, -86198, 65293, 69517, 105010, 55687, -269200, -53189, 215920, -32104, 43811, -134870, -36280, 55182, -128583, 6768, 18980, 45881, 159693, -15220, -71747, -25280, 123793, 73068, 212134, 25410, 28107, -26694, -172490, -59720, -102286, 39439, 22155, -62700, -117904, -26712, -26788, -210955, -122501, 76119, 133738, 129286, -190510, 132641, -93663, -50769, -244831, 92409, -110649, 272577, 141118, -49837, 123500, 101660, 269308, 21176, 120482, 169006, -151574, 8931, 279900, 58760, 130503, 273530, -75329 },
  { -14504, 66769, 195887, -131721, 111948, 237198, 77595, 169075, 110203, -49915, 137779, -9294, -2909, -56949, -153345, 5210, -117217, -68146, 85017, -73948, -36061, -204755, -237154, -200889, 61821, -101042, -95211, 8776, -198898, -63567, -63399, -201100, 314117, -102080, -36509, 117339, 32933, -76863, 9163, -42872, 112590, 64014, -40121, -54564, -13708, 92502, -89126, 172057, 110237, -181666, 141051, 84365, 5858, 41661, 198991, -65101, -3100, -111465, 11065, 67330, 179586, 194943, -37265, 183626, 57077, 76329, 258479, 146031, -16013, 9290, 46860, 59746, 194560, 256709, 280604, -248027, 31052, 5327, 54622, -181912, 226296, 88832, 24208, -313916, 83178, -129610, -53231, 30649, -129927, 129827, 68014, -25952, 47135, 146424, 72519, 9626, -13696, -192925, -9313, 43857, 36366, -124934, -35087, -23840, -54453, 217898, 71723, -104634, -55050, 50463, -7132, 121019, 27250, 33722, -71834, 424, 176942, -29540, 17165, -128928, 123697, 208711, -42985, -43695, 113052, 117801, 91554, 319705 },
  { 26079, -16706, 8328, 17376, -27511, 29148, 30634, 56170, -144118, 175920, -23882, 40581, -171564, -118375, 40902, -9787, -19660, -21183, -43996, -182276, -187015, 280336, 74792, 79638, -117369, -52860, -162337, -99459, -179006, -50851, -86838, 19823, -39751, 187230, 80497, -333783, 134605, 49153, 83294, -33846, -187101, 3591, -17348, 61795, 45615, 146837, -55597, -89748, -157942, 77518, 65177, -233136, 44068, 29043, 209807, -52233, 91255, -59584, 248491, -62285, -195093, 100743, -80789, 81173, 44626, 82998, -26256, 159103, -98784, 70404, -19610, -97441, 53359, -67490, -43938, -18821, -49176, -56230, -244080, 72007, 186584, 47333, 49328, 69517, -33972, 16397, 154294, -75934, -192924, 26074, -57309, -172303, 135849, -156369, -213863, -126016, -26586, -57587, -79454, 34505, 4872, 16054, 94279, -203923, -71186, 93309, 114548, -111382, 66082, 142040, 193581, -238187, 35022, 180971, -57833, -298009, -227919, 96327, -285, 24654, 96128, -68658, -49563, -99331, -60240, -78275, 100008, 129141 },
  { 251453, 21952, -49798, -36723, 136527, -13168, 298715, 130959, 143678, 28834, -139837, -165630, -170994, 130066, -333713, 167140, 79831, 339789, -129150, 212125, -47605, -141043, -99706, 138032, -55295, 4209, 12881, -63835, -106267, 283441, 136109, -27346, 81994, 70900, -156378, -170274, 72274, 83010, 247191, -48148, 73946, 91861, 97639, -198767, 116339, 59361, -188844, 128143, 139952, -44505, 104377, 215001, -278388, -227128, 30682, 161166, 56506, -42409, -311979, -146566, 118828, 94412, 44481, 34623, -199743, -35553, -158225, -140421, -25437, 68025, -4683, 25334, -151216, 65237, -113108, 50721, 104464, 151993, 66911, 185070, 64145, 35043, -61609, -22522, 48829, 121501, 134419, -348369, -61760, -24050, 46959, -58594, -48229, 19047, -120417, -124831, -208557, 44123, -214704, -198616, 22538, 119291, 129885, -101971, 73020, -136355, -150396, 18368, 237717, -115474, 186675, 7947, -58893, 101000, -89418, 7358, 350685, -17979, -146416, 260808, 74474, -225917, 165623, -63471, 57892, -49615, 12438, -9305 },
};

#endif
